{"learner":{"attributes":{"scikit_learn":"{\"_estimator_type\": \"regressor\"}"},"feature_names":[],"feature_types":[],"gradient_booster":{"model":{"gbtree_model_param":{"num_parallel_tree":"1","num_trees":"100"},"iteration_indptr":[0,1,2,3,4,5,6,7,8,9,10,11,12,13,14,15,16,17,18,19,20,21,22,23,24,25,26,27,28,29,30,31,32,33,34,35,36,37,38,39,40,41,42,43,44,45,46,47,48,49,50,51,52,53,54,55,56,57,58,59,60,61,62,63,64,65,66,67,68,69,70,71,72,73,74,75,76,77,78,79,80,81,82,83,84,85,86,87,88,89,90,91,92,93,94,95,96,97,98,99,100],"tree_info":[0,0,0,0,0,0,0,0,0,0,0,0,0,0,0,0,0,0,0,0,0,0,0,0,0,0,0,0,0,0,0,0,0,0,0,0,0,0,0,0,0,0,0,0,0,0,0,0,0,0,0,0,0,0,0,0,0,0,0,0,0,0,0,0,0,0,0,0,0,0,0,0,0,0,0,0,0,0,0,0,0,0,0,0,0,0,0,0,0,0,0,0,0,0,0,0,0,0,0,0],"trees":[{"base_weights":[-4.5514732E-4,-3.233495E-1,1.2595595E0,-7.003789E-1,3.783248E-2,8.493632E-1,2.1265965E0,-2.768433E-1,-8.1566906E-1,7.304788E-1,-1.8464983E-1,1.5137086E0,5.890007E-1,1.7211533E0,2.5135107E0,-4.6479624E-2,-8.7043715E-1,-5.9651154E-1,-1.0256716E0,8.74584E-1,-2.9966792E-1,-3.4212855E-1,4.2699855E-2,9.6052873E-1,1.742958E0,3.1849375E-1,8.610744E-1,1.3800535E0,2.2159534E0,2.5375683E0,6.525561E-1,2.3082374E-2,-4.4009324E-2,-7.472527E-2,-1.11794524E-1,-4.068575E-2,-1.00239955E-1,-7.4254856E-2,-1.1842499E-1,1.8140284E-2,1.11162E-1,1.5942918E-2,-5.0015636E-2,-4.082183E-2,1.3465348E-2,3.0269125E-2,-1.3397035E-2,6.4320795E-2,1.2614669E-1,2.5032005E-1,1.534371E-1,5.655218E-2,1.49687575E-2,6.911582E-2,1.2808596E-1,1.2290825E-1,1.6314428E-1,2.3666012E-1,1.6558836E-1,2.2900501E-1,2.752388E-1,-1.1478964E-2,9.824524E-2],"categories":[],"categories_nodes":[],"categories_segments":[],"categories_sizes":[],"default_left":[0,0,0,0,0,0,0,0,0,0,0,0,0,0,0,0,0,0,0,0,0,0,0,0,0,0,0,0,0,0,0,0,0,0,0,0,0,0,0,0,0,0,0,0,0,0,0,0,0,0,0,0,0,0,0,0,0,0,0,0,0,0,0],"id":0,"left_children":[1,3,5,7,9,11,13,15,17,19,21,23,25,27,29,31,33,35,37,39,41,43,45,47,49,51,53,55,57,59,61,-1,-1,-1,-1,-1,-1,-1,-1,-1,-1,-1,-1,-1,-1,-1,-1,-1,-1,-1,-1,-1,-1,-1,-1,-1,-1,-1,-1,-1,-1,-1,-1],"loss_changes":[5.4070586E3,1.4406345E3,9.62375E2,2.5251587E2,8.3289966E2,3.1772034E2,1.3215234E2,1.5160695E2,1.8661255E2,1.9532477E2,1.464836E2,6.401648E1,9.724289E1,6.91781E1,1.8177246E1,8.742188E1,8.616241E0,1.5300989E2,9.232715E1,1.8924634E2,1.4990808E1,7.621564E1,7.697788E1,1.3894684E1,5.4039673E1,2.7687454E1,4.6191406E1,7.710663E0,1.0677734E1,1.6933105E1,1.8847868E0,0E0,0E0,0E0,0E0,0E0,0E0,0E0,0E0,0E0,0E0,0E0,0E0,0E0,0E0,0E0,0E0,0E0,0E0,0E0,0E0,0E0,0E0,0E0,0E0,0E0,0E0,0E0,0E0,0E0,0E0,0E0,0E0],"parents":[2147483647,0,0,1,1,2,2,3,3,4,4,5,5,6,6,7,7,8,8,9,9,10,10,11,11,12,12,13,13,14,14,15,15,16,16,17,17,18,18,19,19,20,20,21,21,22,22,23,23,24,24,25,25,26,26,27,27,28,28,29,29,30,30],"right_children":[2,4,6,8,10,12,14,16,18,20,22,24,26,28,30,32,34,36,38,40,42,44,46,48,50,52,54,56,58,60,62,-1,-1,-1,-1,-1,-1,-1,-1,-1,-1,-1,-1,-1,-1,-1,-1,-1,-1,-1,-1,-1,-1,-1,-1,-1,-1,-1,-1,-1,-1,-1,-1],"split_conditions":[5.0733E0,3.1103E0,6.8233E0,2.3005319E0,2.3954742E0,2.5741935E0,8.0073E0,3.795E1,3.445E1,3.794E1,4.1161E0,2.1E1,5.7393E0,2.7E1,3.797E1,-1.1823E2,3.904E1,-1.1776E2,-1.2171E2,2E1,-1.2236E2,4.4E1,2.8349056E0,5.5951E0,2.1448693E0,2.941824E0,2.8E1,1.9E1,3.774E1,9.3125E0,3.834E1,2.3082374E-2,-4.4009324E-2,-7.472527E-2,-1.11794524E-1,-4.068575E-2,-1.00239955E-1,-7.4254856E-2,-1.1842499E-1,1.8140284E-2,1.11162E-1,1.5942918E-2,-5.0015636E-2,-4.082183E-2,1.3465348E-2,3.0269125E-2,-1.3397035E-2,6.4320795E-2,1.2614669E-1,2.5032005E-1,1.534371E-1,5.655218E-2,1.49687575E-2,6.911582E-2,1.2808596E-1,1.2290825E-1,1.6314428E-1,2.3666012E-1,1.6558836E-1,2.2900501E-1,2.752388E-1,-1.1478964E-2,9.824524E-2],"split_indices":[0,0,0,5,5,5,0,6,6,6,0,1,0,1,6,7,6,7,7,1,7,1,5,0,5,5,1,1,6,0,6,0,0,0,0,0,0,0,0,0,0,0,0,0,0,0,0,0,0,0,0,0,0,0,0,0,0,0,0,0,0,0,0],"split_type":[0,0,0,0,0,0,0,0,0,0,0,0,0,0,0,0,0,0,0,0,0,0,0,0,0,0,0,0,0,0,0,0,0,0,0,0,0,0,0,0,0,0,0,0,0,0,0,0,0,0,0,0,0,0,0,0,0,0,0,0,0,0,0],"sum_hessian":[1.3288E4,1.0578E4,2.71E3,5.175E3,5.403E3,1.841E3,8.69E2,1.108E3,4.067E3,1.313E3,4.09E3,5.17E2,1.324E3,4.27E2,4.42E2,7.99E2,3.09E2,1.992E3,2.075E3,1.152E3,1.61E2,2.416E3,1.674E3,1.53E2,3.64E2,6.65E2,6.59E2,2.55E2,1.72E2,4.36E2,6E0,4.69E2,3.3E2,2.09E2,1E2,1.359E3,6.33E2,7.47E2,1.328E3,2.94E2,8.58E2,4.9E1,1.12E2,2.122E3,2.94E2,6.77E2,9.97E2,7.6E1,7.7E1,7.6E1,2.88E2,2.69E2,3.96E2,4.71E2,1.88E2,1.63E2,9.2E1,1.33E2,3.9E1,2.08E2,2.28E2,2E0,4E0],"tree_param":{"num_deleted":"0","num_feature":"8","num_nodes":"63","size_leaf_vector":"1"}},{"base_weights":[-7.40393E-3,-3.017049E-1,1.122122E0,-6.9707555E-1,-1.5257721E-2,7.608698E-1,1.9319875E0,-3.528638E-1,-8.366538E-1,5.7157654E-1,-2.0812097E-1,1.1858739E0,4.433798E-1,1.5012239E0,2.2494762E0,-8.10105E-2,-5.953821E-1,-1.0097661E0,-6.4538777E-1,1.01323925E-1,7.8361565E-1,-3.7627733E-1,-1.75408E-2,7.631041E-1,1.3662419E0,1.8857746E-1,6.9131595E-1,1.1838003E0,1.9724106E0,1.9389374E0,2.4084606E0,-3.5533395E-2,2.010008E-2,-7.945787E-2,-4.9885996E-2,-4.733335E-2,-1.0428772E-1,-2.8398586E-2,-7.3165834E-2,-2.0588322E-2,2.7623633E-2,1.2825112E-1,4.727281E-2,-1.9505618E-2,-5.216215E-2,2.0306317E-2,-1.628864E-2,5.663259E-2,1.0913346E-1,2.1833657E-1,1.2183886E-1,1.4695448E-2,7.96358E-2,6.519186E-2,1.8129419E-1,6.894145E-2,1.23885944E-1,5.9725728E-2,2.0494771E-1,1.645381E-1,2.3362811E-1,9.423697E-3,2.4304812E-1],"categories":[],"categories_nodes":[],"categories_segments":[],"categories_sizes":[],"default_left":[0,0,0,0,0,0,0,0,0,0,0,0,0,0,0,0,0,0,0,0,0,0,0,0,0,0,0,0,0,0,0,0,0,0,0,0,0,0,0,0,0,0,0,0,0,0,0,0,0,0,0,0,0,0,0,0,0,0,0,0,0,0,0],"id":1,"left_children":[1,3,5,7,9,11,13,15,17,19,21,23,25,27,29,31,33,35,37,39,41,43,45,47,49,51,53,55,57,59,61,-1,-1,-1,-1,-1,-1,-1,-1,-1,-1,-1,-1,-1,-1,-1,-1,-1,-1,-1,-1,-1,-1,-1,-1,-1,-1,-1,-1,-1,-1,-1,-1],"loss_changes":[4.3776533E3,1.1831416E3,7.9489355E2,2.1057202E2,6.858691E2,2.536908E2,1.113667E2,8.355026E1,1.0271924E2,1.493888E2,1.4616098E2,6.0342163E1,6.809831E1,5.135919E1,1.9077637E1,4.6411446E1,1.2485626E1,2.8582642E1,4.612329E1,2.5150808E1,1.5961249E2,6.371875E1,6.861758E1,1.5076981E1,6.53584E1,1.3391912E1,2.2989532E1,5.0527344E0,1.3930786E1,1.5751953E1,1.5772705E1,0E0,0E0,0E0,0E0,0E0,0E0,0E0,0E0,0E0,0E0,0E0,0E0,0E0,0E0,0E0,0E0,0E0,0E0,0E0,0E0,0E0,0E0,0E0,0E0,0E0,0E0,0E0,0E0,0E0,0E0,0E0,0E0],"parents":[2147483647,0,0,1,1,2,2,3,3,4,4,5,5,6,6,7,7,8,8,9,9,10,10,11,11,12,12,13,13,14,14,15,15,16,16,17,17,18,18,19,19,20,20,21,21,22,22,23,23,24,24,25,25,26,26,27,27,28,28,29,29,30,30],"right_children":[2,4,6,8,10,12,14,16,18,20,22,24,26,28,30,32,34,36,38,40,42,44,46,48,50,52,54,56,58,60,62,-1,-1,-1,-1,-1,-1,-1,-1,-1,-1,-1,-1,-1,-1,-1,-1,-1,-1,-1,-1,-1,-1,-1,-1,-1,-1,-1,-1,-1,-1,-1,-1],"split_conditions":[5.0479E0,2.888E0,6.8233E0,3.9502761E0,2.3954742E0,2.744E0,7.8287E0,3.1052632E0,2.3036E0,2.2E1,3.9167E0,2.2E1,5.6874E0,2.7E1,2.1E1,2.1287E0,1.8238E0,1.9284818E0,2.2931392E0,3.5313E0,2.0660264E0,5.009726E0,2.8411765E0,1.0769231E0,2.1666667E0,3.8E1,4E1,9.597315E-1,9.3562233E-1,9.3125E0,4.6782274E0,-3.5533395E-2,2.010008E-2,-7.945787E-2,-4.9885996E-2,-4.733335E-2,-1.0428772E-1,-2.8398586E-2,-7.3165834E-2,-2.0588322E-2,2.7623633E-2,1.2825112E-1,4.727281E-2,-1.9505618E-2,-5.216215E-2,2.0306317E-2,-1.628864E-2,5.663259E-2,1.0913346E-1,2.1833657E-1,1.2183886E-1,1.4695448E-2,7.96358E-2,6.519186E-2,1.8129419E-1,6.894145E-2,1.23885944E-1,5.9725728E-2,2.0494771E-1,1.645381E-1,2.3362811E-1,9.423697E-3,2.4304812E-1],"split_indices":[0,0,0,2,5,5,0,5,0,1,0,1,0,1,1,0,0,5,5,0,5,2,5,3,5,1,1,3,3,0,2,0,0,0,0,0,0,0,0,0,0,0,0,0,0,0,0,0,0,0,0,0,0,0,0,0,0,0,0,0,0,0,0],"split_type":[0,0,0,0,0,0,0,0,0,0,0,0,0,0,0,0,0,0,0,0,0,0,0,0,0,0,0,0,0,0,0,0,0,0,0,0,0,0,0,0,0,0,0,0,0,0,0,0,0,0,0,0,0,0,0,0,0,0,0,0,0,0,0],"sum_hessian":[1.3167E4,1.0446E4,2.721E3,4.388E3,6.058E3,1.883E3,8.38E2,1.267E3,3.121E3,1.498E3,4.56E3,8.04E2,1.079E3,3.58E2,4.8E2,5.98E2,6.69E2,1.636E3,1.485E3,4.66E2,1.032E3,2.422E3,2.138E3,2.42E2,5.62E2,5.33E2,5.46E2,2.16E2,1.42E2,1.67E2,3.13E2,3.03E2,2.95E2,2.16E2,4.53E2,9.6E1,1.54E3,2.87E2,1.198E3,1.69E2,2.97E2,3.95E2,6.37E2,1.079E3,1.343E3,8.49E2,1.289E3,1.53E2,8.9E1,8.4E1,4.78E2,5E2,3.3E1,5.29E2,1.7E1,2.3E1,1.93E2,8E0,1.34E2,9.9E1,6.8E1,3E0,3.1E2],"tree_param":{"num_deleted":"0","num_feature":"8","num_nodes":"63","size_leaf_vector":"1"}},{"base_weights":[4.11668E-3,-3.0871236E-1,8.7857807E-1,-5.6510365E-1,-1.0082277E-2,5.597101E-1,1.6505353E0,-3.7326124E-1,-7.43414E-1,-1.2091313E-1,4.1567692E-1,4.33201E-1,1.1443661E0,1.3087114E0,2.0141044E0,-5.7516396E-1,-2.3252057E-1,-8.0312294E-1,-1.23476975E-1,1.7381902E-1,-2.3447153E-1,4.932469E-1,-4.8514003E-1,2.7642304E-1,7.01983E-1,1.1916897E0,4.0525768E-2,9.84947E-1,1.631188E0,1.6677411E0,2.159116E0,-1.6137997E-2,-6.9070086E-2,-3.7106343E-2,-7.6846965E-3,-9.4976574E-2,-6.316143E-2,-3.346397E-2,6.238986E-2,-1.598772E-4,3.1854972E-2,-4.8095882E-2,-1.1584668E-2,3.277556E-2,8.4424585E-2,-5.717625E-2,5.9187528E-2,-2.949868E-3,4.1959457E-2,5.837347E-2,1.019114E-1,1.03909366E-1,1.5050098E-1,-3.3578437E-2,5.9992522E-2,8.105639E-2,1.1920847E-1,1.6547544E-1,8.892755E-3,1.3756335E-1,1.9302176E-1,8.716918E-3,2.1771948E-1],"categories":[],"categories_nodes":[],"categories_segments":[],"categories_sizes":[],"default_left":[0,0,0,0,0,0,0,0,0,0,0,0,0,0,0,0,0,0,0,0,0,0,0,0,0,0,0,0,0,0,0,0,0,0,0,0,0,0,0,0,0,0,0,0,0,0,0,0,0,0,0,0,0,0,0,0,0,0,0,0,0,0,0],"id":2,"left_children":[1,3,5,7,9,11,13,15,17,19,21,23,25,27,29,31,33,35,37,39,41,43,45,47,49,51,53,55,57,59,61,-1,-1,-1,-1,-1,-1,-1,-1,-1,-1,-1,-1,-1,-1,-1,-1,-1,-1,-1,-1,-1,-1,-1,-1,-1,-1,-1,-1,-1,-1,-1,-1],"loss_changes":[3.606846E3,7.435281E2,8.542097E2,1.7845679E2,2.1177946E2,1.8145642E2,1.2350488E2,7.144595E1,1.0010266E2,1.19224976E2,6.5014694E1,8.509546E1,2.2779602E1,5.331122E1,2.1010254E1,4.932129E1,3.2020737E1,6.1496582E1,3.7927254E1,2.5160357E1,7.511908E1,4.932982E1,7.2421474E0,5.6075447E1,2.7342773E1,1.8469116E1,4.2010913E0,8.6058655E0,9.375305E0,8.768768E0,1.2620972E1,0E0,0E0,0E0,0E0,0E0,0E0,0E0,0E0,0E0,0E0,0E0,0E0,0E0,0E0,0E0,0E0,0E0,0E0,0E0,0E0,0E0,0E0,0E0,0E0,0E0,0E0,0E0,0E0,0E0,0E0,0E0,0E0],"parents":[2147483647,0,0,1,1,2,2,3,3,4,4,5,5,6,6,7,7,8,8,9,9,10,10,11,11,12,12,13,13,14,14,15,15,16,16,17,17,18,18,19,19,20,20,21,21,22,22,23,23,24,24,25,25,26,26,27,27,28,28,29,29,30,30],"right_children":[2,4,6,8,10,12,14,16,18,20,22,24,26,28,30,32,34,36,38,40,42,44,46,48,50,52,54,56,58,60,62,-1,-1,-1,-1,-1,-1,-1,-1,-1,-1,-1,-1,-1,-1,-1,-1,-1,-1,-1,-1,-1,-1,-1,-1,-1,-1,-1,-1,-1,-1,-1,-1],"split_conditions":[4.6833E0,3.138E0,6.5778E0,3.445E1,3.9E1,3.7E1,7.8287E0,2.2202E0,5.2E1,4.7901525E0,3.795E1,5.5951E0,3.799E1,2.4E1,1.9E1,3.3042896E0,3.399E1,2.3971E0,1.337E3,1.0389972E0,3.6625E0,4.0652E0,1.25E3,1.7E1,2.8E1,4.9E1,1.046875E0,1.0302198E0,3.8E1,8.7603E0,4.6782274E0,-1.6137997E-2,-6.9070086E-2,-3.7106343E-2,-7.6846965E-3,-9.4976574E-2,-6.316143E-2,-3.346397E-2,6.238986E-2,-1.598772E-4,3.1854972E-2,-4.8095882E-2,-1.1584668E-2,3.277556E-2,8.4424585E-2,-5.717625E-2,5.9187528E-2,-2.949868E-3,4.1959457E-2,5.837347E-2,1.019114E-1,1.03909366E-1,1.5050098E-1,-3.3578437E-2,5.9992522E-2,8.105639E-2,1.1920847E-1,1.6547544E-1,8.892755E-3,1.3756335E-1,1.9302176E-1,8.716918E-3,2.1771948E-1],"split_indices":[0,0,0,6,1,1,0,0,1,2,6,0,6,1,1,2,6,0,4,3,0,0,4,1,1,1,3,3,6,0,2,0,0,0,0,0,0,0,0,0,0,0,0,0,0,0,0,0,0,0,0,0,0,0,0,0,0,0,0,0,0,0,0],"split_type":[0,0,0,0,0,0,0,0,0,0,0,0,0,0,0,0,0,0,0,0,0,0,0,0,0,0,0,0,0,0,0,0,0,0,0,0,0,0,0,0,0,0,0,0,0,0,0,0,0,0,0,0,0,0,0,0,0,0,0,0,0,0,0],"sum_hessian":[1.3183E4,9.71E3,3.473E3,5.224E3,4.486E3,2.459E3,1.014E3,2.518E3,2.706E3,3.56E3,9.26E2,2.023E3,4.36E2,5.25E2,4.89E2,1.033E3,1.485E3,2.468E3,2.38E2,9.9E2,2.57E3,8.53E2,7.3E1,1.279E3,7.44E2,4.18E2,1.8E1,2.64E2,2.61E2,1.48E2,3.41E2,2.26E2,8.07E2,7.85E2,7E2,1.328E3,1.14E3,1.86E2,5.2E1,4.48E2,5.42E2,8.34E2,1.736E3,5.81E2,2.72E2,6.8E1,5E0,4.08E2,8.71E2,5.44E2,2E2,2.84E2,1.34E2,1.1E1,7E0,1.46E2,1.18E2,2.57E2,4E0,7.3E1,7.5E1,3E0,3.38E2],"tree_param":{"num_deleted":"0","num_feature":"8","num_nodes":"63","size_leaf_vector":"1"}},{"base_weights":[-6.4805765E-3,1.0224171E-1,-5.394986E-1,3.315086E-1,-2.8846377E-1,-3.8187537E-1,-8.6261076E-1,4.782945E-1,-2.1964552E-1,2.2207844E-1,-3.7469643E-1,2.4024814E-1,-5.3171086E-1,-9.6707654E-1,-5.851038E-1,1.3163763E0,4.0277E-1,4.9962766E-2,-6.806331E-1,9.002078E-1,1.3882968E-1,-2.4483368E-1,-9.328316E-1,9.616873E-1,1.7939018E-2,-3.9057672E-1,-6.464843E-1,-9.1064805E-1,-1.0364181E0,-4.5488822E-1,-9.6427786E-1,1.4934121E-1,9.08257E-2,6.717824E-2,7.26297E-3,4.8796535E-2,-3.676872E-2,-4.166722E-2,-7.7905774E-2,-1.4166737E-2,1.0306428E-1,2.247593E-2,-1.9815547E-2,-1.3989601E-3,-4.1802976E-2,-7.00487E-2,-1.0552534E-1,-2.283079E-2,1.058223E-1,-5.5016023E-3,3.192999E-2,-1.6130773E-2,-4.5190826E-2,-4.6883237E-2,-7.719161E-2,-8.2228646E-2,-9.52461E-2,-1.0396635E-1,-1.449976E-2,-3.3108793E-2,-6.822268E-2,-1.04694895E-1,-4.6215218E-2],"categories":[],"categories_nodes":[],"categories_segments":[],"categories_sizes":[],"default_left":[0,0,0,0,0,0,0,0,0,0,0,0,0,0,0,0,0,0,0,0,0,0,0,0,0,0,0,0,0,0,0,0,0,0,0,0,0,0,0,0,0,0,0,0,0,0,0,0,0,0,0,0,0,0,0,0,0,0,0,0,0,0,0],"id":3,"left_children":[1,3,5,7,9,11,13,15,17,19,21,23,25,27,29,31,33,35,37,39,41,43,45,47,49,51,53,55,57,59,61,-1,-1,-1,-1,-1,-1,-1,-1,-1,-1,-1,-1,-1,-1,-1,-1,-1,-1,-1,-1,-1,-1,-1,-1,-1,-1,-1,-1,-1,-1,-1,-1],"loss_changes":[7.655292E2,9.8292163E2,1.1365198E2,5.5953986E2,1.787384E2,1.4051134E2,2.0683777E1,3.451277E2,1.8087025E2,3.301319E1,2.514255E2,4.6974827E1,1.9412415E1,1.1338806E0,9.584358E0,3.1229187E1,4.4498724E2,1.682937E2,1.3626785E1,8.843414E0,1.521801E1,1.1266142E2,1.7891663E1,8.16811E0,4.9643707E0,7.6187134E0,1.4523285E1,3.289032E-1,5.175171E-1,4.080244E0,1.6332245E0,0E0,0E0,0E0,0E0,0E0,0E0,0E0,0E0,0E0,0E0,0E0,0E0,0E0,0E0,0E0,0E0,0E0,0E0,0E0,0E0,0E0,0E0,0E0,0E0,0E0,0E0,0E0,0E0,0E0,0E0,0E0,0E0],"parents":[2147483647,0,0,1,1,2,2,3,3,4,4,5,5,6,6,7,7,8,8,9,9,10,10,11,11,12,12,13,13,14,14,15,15,16,16,17,17,18,18,19,19,20,20,21,21,22,22,23,23,24,24,25,25,26,26,27,27,28,28,29,29,30,30],"right_children":[2,4,6,8,10,12,14,16,18,20,22,24,26,28,30,32,34,36,38,40,42,44,46,48,50,52,54,56,58,60,62,-1,-1,-1,-1,-1,-1,-1,-1,-1,-1,-1,-1,-1,-1,-1,-1,-1,-1,-1,-1,-1,-1,-1,-1,-1,-1,-1,-1,-1,-1,-1,-1],"split_conditions":[3.794E1,3.0980392E0,3.887E1,-1.1774E2,-1.2144E2,-1.2239E2,-1.2135E2,-1.2231E2,3.369E1,1.5E1,3.453E1,3.821E1,2.3E1,2.5E1,3.939E1,2.607362E0,3.463E1,-1.1715E2,-1.1742E2,3.708E1,3.774E1,3.5092592E0,-1.2033E2,1.7592592E0,-1.226E2,-1.2197E2,-1.2157E2,-1.2266E2,4.7636986E0,2.1E1,1.7E0,1.4934121E-1,9.08257E-2,6.717824E-2,7.26297E-3,4.8796535E-2,-3.676872E-2,-4.166722E-2,-7.7905774E-2,-1.4166737E-2,1.0306428E-1,2.247593E-2,-1.9815547E-2,-1.3989601E-3,-4.1802976E-2,-7.00487E-2,-1.0552534E-1,-2.283079E-2,1.058223E-1,-5.5016023E-3,3.192999E-2,-1.6130773E-2,-4.5190826E-2,-4.6883237E-2,-7.719161E-2,-8.2228646E-2,-9.52461E-2,-1.0396635E-1,-1.449976E-2,-3.3108793E-2,-6.822268E-2,-1.04694895E-1,-4.6215218E-2],"split_indices":[6,5,6,7,7,7,7,7,6,1,6,6,1,1,6,5,6,7,7,6,6,5,7,5,7,7,7,7,5,1,3,0,0,0,0,0,0,0,0,0,0,0,0,0,0,0,0,0,0,0,0,0,0,0,0,0,0,0,0,0,0,0,0],"split_type":[0,0,0,0,0,0,0,0,0,0,0,0,0,0,0,0,0,0,0,0,0,0,0,0,0,0,0,0,0,0,0,0,0,0,0,0,0,0,0,0,0,0,0,0,0,0,0,0,0,0,0,0,0,0,0,0,0,0,0,0,0,0,0],"sum_hessian":[1.3208E4,1.0971E4,2.237E3,6.914E3,4.057E3,1.505E3,7.32E2,5.46E3,1.454E3,5.86E2,3.471E3,2.92E2,1.213E3,5.3E2,2.02E2,4.5E2,5.01E3,9.18E2,5.36E2,6.3E1,5.23E2,2.817E3,6.54E2,6.8E1,2.24E2,5.46E2,6.67E2,3E2,2.3E2,1.52E2,5E1,3.12E2,1.38E2,2.76E3,2.25E3,4.48E2,4.7E2,1.47E2,3.89E2,7E0,5.6E1,4.17E2,1.06E2,1.208E3,1.609E3,2.28E2,4.26E2,5E0,6.3E1,1.81E2,4.3E1,1.16E2,4.3E2,2.78E2,3.89E2,1.03E2,1.97E2,2.29E2,1E0,1E2,5.2E1,4.2E1,8E0],"tree_param":{"num_deleted":"0","num_feature":"8","num_nodes":"63","size_leaf_vector":"1"}},{"base_weights":[-1.1431345E-3,-1.8935409E-1,1.1165941E0,-4.4875953E-1,1.024457E-1,8.7515855E-1,1.7322658E0,1.117238E-2,-5.259537E-1,6.9763666E-1,-4.6376027E-2,1.3579868E0,6.803476E-1,1.3825845E0,1.8946623E0,-2.4576211E-1,2.734836E-1,-6.561938E-1,-3.8534498E-1,8.219253E-2,9.026821E-1,-1.7223626E-1,1.7498592E-1,1.5177045E0,9.039286E-1,4.782069E-1,9.148997E-1,1.079324E0,1.7594293E0,1.9096524E0,4.3644413E-1,-1.0797916E-2,-5.7031125E-2,-1.9428877E-2,4.60616E-2,-4.9500015E-2,-8.0382094E-2,-3.1930145E-2,-6.2423315E-2,-6.272008E-3,2.3882488E-2,1.4937483E-1,6.47157E-2,3.5773E-2,-2.2475723E-2,3.7553873E-2,3.7827715E-3,1.01855814E-1,1.6748773E-1,1.5055417E-1,5.9462734E-2,6.97027E-2,2.9821588E-2,7.66442E-2,1.2858556E-1,1.398918E-1,9.335838E-2,1.799632E-1,1.8128825E-2,1.9262652E-1,6.084458E-2,7.091709E-2,-3.272314E-2],"categories":[],"categories_nodes":[],"categories_segments":[],"categories_sizes":[],"default_left":[0,0,0,0,0,0,0,0,0,0,0,0,0,0,0,0,0,0,0,0,0,0,0,0,0,0,0,0,0,0,0,0,0,0,0,0,0,0,0,0,0,0,0,0,0,0,0,0,0,0,0,0,0,0,0,0,0,0,0,0,0,0,0],"id":4,"left_children":[1,3,5,7,9,11,13,15,17,19,21,23,25,27,29,31,33,35,37,39,41,43,45,47,49,51,53,55,57,59,61,-1,-1,-1,-1,-1,-1,-1,-1,-1,-1,-1,-1,-1,-1,-1,-1,-1,-1,-1,-1,-1,-1,-1,-1,-1,-1,-1,-1,-1,-1,-1,-1],"loss_changes":[2.7880396E3,8.5864813E2,2.82396E2,2.1320776E2,4.7294678E2,1.2831482E2,2.7875E1,5.8298046E1,9.391199E1,1.3470105E2,1.190509E2,2.7201477E1,4.6074158E1,1.7986084E1,7.123169E0,1.9479897E1,3.755463E1,6.309131E1,3.8848816E1,6.098044E0,1.2001013E2,7.590113E1,4.2594856E1,2.1045166E1,1.8643135E1,2.062716E1,2.3961731E1,3.3051834E0,4.4956207E0,6.6099854E0,1.2734364E0,0E0,0E0,0E0,0E0,0E0,0E0,0E0,0E0,0E0,0E0,0E0,0E0,0E0,0E0,0E0,0E0,0E0,0E0,0E0,0E0,0E0,0E0,0E0,0E0,0E0,0E0,0E0,0E0,0E0,0E0,0E0,0E0],"parents":[2147483647,0,0,1,1,2,2,3,3,4,4,5,5,6,6,7,7,8,8,9,9,10,10,11,11,12,12,13,13,14,14,15,15,16,16,17,17,18,18,19,19,20,20,21,21,22,22,23,23,24,24,25,25,26,26,27,27,28,28,29,29,30,30],"right_children":[2,4,6,8,10,12,14,16,18,20,22,24,26,28,30,32,34,36,38,40,42,44,46,48,50,52,54,56,58,60,62,-1,-1,-1,-1,-1,-1,-1,-1,-1,-1,-1,-1,-1,-1,-1,-1,-1,-1,-1,-1,-1,-1,-1,-1,-1,-1,-1,-1,-1,-1,-1,-1],"split_conditions":[5.5951E0,3.3306E0,7.6685E0,2.1333334E0,2.35E0,2.5964286E0,1.9E1,2.5125E0,2.5125E0,1.8E1,4.525E0,3.761E1,6.3303E0,8.7603E0,3.799E1,3.793E1,2.2E1,3.445E1,3.791E1,4.1974E0,1.9598699E0,-1.2236E2,2.8349056E0,1.8E1,-1.2239E2,3.0068493E0,2.7E1,-1.2171E2,3.789E1,-1.1716E2,8.7603E0,-1.0797916E-2,-5.7031125E-2,-1.9428877E-2,4.60616E-2,-4.9500015E-2,-8.0382094E-2,-3.1930145E-2,-6.2423315E-2,-6.272008E-3,2.3882488E-2,1.4937483E-1,6.47157E-2,3.5773E-2,-2.2475723E-2,3.7553873E-2,3.7827715E-3,1.01855814E-1,1.6748773E-1,1.5055417E-1,5.9462734E-2,6.97027E-2,2.9821588E-2,7.66442E-2,1.2858556E-1,1.398918E-1,9.335838E-2,1.799632E-1,1.8128825E-2,1.9262652E-1,6.084458E-2,7.091709E-2,-3.272314E-2],"split_indices":[0,0,0,5,5,5,1,0,0,1,0,6,0,0,6,6,1,6,6,0,5,7,5,1,7,5,1,7,6,7,0,0,0,0,0,0,0,0,0,0,0,0,0,0,0,0,0,0,0,0,0,0,0,0,0,0,0,0,0,0,0,0,0],"split_type":[0,0,0,0,0,0,0,0,0,0,0,0,0,0,0,0,0,0,0,0,0,0,0,0,0,0,0,0,0,0,0,0,0,0,0,0,0,0,0,0,0,0,0,0,0,0,0,0,0,0,0,0,0,0,0,0,0,0,0,0,0,0,0],"sum_hessian":[1.3251E4,1.1342E4,1.909E3,6.004E3,5.338E3,1.373E3,5.36E2,8.63E2,5.141E3,1.067E3,4.271E3,3.93E2,9.8E2,1.73E2,3.63E2,4.36E2,4.27E2,2.667E3,2.474E3,2.67E2,8E2,2.723E3,1.548E3,2.89E2,1.04E2,5.28E2,4.52E2,9.8E1,7.5E1,3.59E2,4E0,3.07E2,1.29E2,1.22E2,3.05E2,1.277E3,1.39E3,1.94E3,5.34E2,1.39E2,1.28E2,2.4E2,5.6E2,2.45E2,2.478E3,6.28E2,9.2E2,7.1E1,2.18E2,3.4E1,7E1,2.37E2,2.91E2,3.25E2,1.27E2,2.8E1,7E1,7.3E1,2E0,3.54E2,5E0,3E0,1E0],"tree_param":{"num_deleted":"0","num_feature":"8","num_nodes":"63","size_leaf_vector":"1"}},{"base_weights":[3.7531636E-4,-2.1881436E-1,7.8832495E-1,-4.1077575E-1,5.2874513E-2,4.951033E-1,1.3307592E0,-5.412487E-1,-2.541822E-1,5.4981804E-1,-1.693507E-2,5.623776E-1,-3.3321723E-2,1.0645885E0,1.6122649E0,-1.9106701E-1,-6.312644E-1,-3.2448623E-2,-4.3925983E-1,9.5701164E-1,-2.8005142E-2,4.589666E-2,-4.6925884E-1,7.1042037E-1,2.6418898E-1,5.864706E-1,-1.8625087E-1,8.277686E-1,1.2080857E0,1.7220074E0,1.2632003E0,-1.347134E-3,-3.9222453E-2,-7.698559E-2,-5.459956E-2,7.350804E-2,-8.560295E-3,-2.611664E-2,-4.963463E-2,7.278493E-2,1.4954773E-1,1.2590452E-2,-7.376393E-2,2.0834288E-2,-1.788264E-2,-5.188182E-2,-3.338751E-2,1.0930049E-1,6.2593184E-2,1.4828384E-2,5.8310326E-2,9.518062E-2,3.8987853E-2,-7.471868E-2,-1.502533E-2,1.327102E-1,7.1311146E-2,1.4070168E-1,9.939542E-2,1.7515777E-1,4.9118813E-2,-3.366515E-2,1.3212697E-1],"categories":[],"categories_nodes":[],"categories_segments":[],"categories_sizes":[],"default_left":[0,0,0,0,0,0,0,0,0,0,0,0,0,0,0,0,0,0,0,0,0,0,0,0,0,0,0,0,0,0,0,0,0,0,0,0,0,0,0,0,0,0,0,0,0,0,0,0,0,0,0,0,0,0,0,0,0,0,0,0,0,0,0],"id":5,"left_children":[1,3,5,7,9,11,13,15,17,19,21,23,25,27,29,31,33,35,37,39,41,43,45,47,49,51,53,55,57,59,61,-1,-1,-1,-1,-1,-1,-1,-1,-1,-1,-1,-1,-1,-1,-1,-1,-1,-1,-1,-1,-1,-1,-1,-1,-1,-1,-1,-1,-1,-1,-1,-1],"loss_changes":[2.2720054E3,5.3678827E2,4.547113E2,1.2308301E2,1.4786415E2,6.6140594E1,7.351184E1,1.0355493E2,1.1255275E2,1.2355191E2,1.0625656E2,7.265106E1,2.010872E1,1.6637146E1,1.6442017E1,2.4073168E1,3.0494263E1,5.1018982E1,1.5069641E1,3.691748E1,2.3902733E1,1.19884514E2,2.8863297E0,3.493695E1,2.0206657E1,2.6454382E0,3.3204288E0,1.0446823E1,1.2275269E1,1.2496826E1,1.1593109E1,0E0,0E0,0E0,0E0,0E0,0E0,0E0,0E0,0E0,0E0,0E0,0E0,0E0,0E0,0E0,0E0,0E0,0E0,0E0,0E0,0E0,0E0,0E0,0E0,0E0,0E0,0E0,0E0,0E0,0E0,0E0,0E0],"parents":[2147483647,0,0,1,1,2,2,3,3,4,4,5,5,6,6,7,7,8,8,9,9,10,10,11,11,12,12,13,13,14,14,15,15,16,16,17,17,18,18,19,19,20,20,21,21,22,22,23,23,24,24,25,25,26,26,27,27,28,28,29,29,30,30],"right_children":[2,4,6,8,10,12,14,16,18,20,22,24,26,28,30,32,34,36,38,40,42,44,46,48,50,52,54,56,58,60,62,-1,-1,-1,-1,-1,-1,-1,-1,-1,-1,-1,-1,-1,-1,-1,-1,-1,-1,-1,-1,-1,-1,-1,-1,-1,-1,-1,-1,-1,-1,-1,-1],"split_conditions":[5E0,3.3625E0,6.5778E0,2.5658E0,-1.2226E2,3.796E1,7.8287E0,3.6454353E0,4.690821E0,3.791E1,3.795E1,-1.1803E2,-1.2239E2,1.007326E0,-1.1799E2,-1.1827E2,1.9152E0,-1.2236E2,-1.2162E2,3.777E1,3.868E1,-1.1809E2,-1.2124E2,-1.2211E2,1.0680714E0,3.809E1,5.5947957E0,-1.2203E2,7.184416E0,3.799E1,1.37E2,-1.347134E-3,-3.9222453E-2,-7.698559E-2,-5.459956E-2,7.350804E-2,-8.560295E-3,-2.611664E-2,-4.963463E-2,7.278493E-2,1.4954773E-1,1.2590452E-2,-7.376393E-2,2.0834288E-2,-1.788264E-2,-5.188182E-2,-3.338751E-2,1.0930049E-1,6.2593184E-2,1.4828384E-2,5.8310326E-2,9.518062E-2,3.8987853E-2,-7.471868E-2,-1.502533E-2,1.327102E-1,7.1311146E-2,1.4070168E-1,9.939542E-2,1.7515777E-1,4.9118813E-2,-3.366515E-2,1.3212697E-1],"split_indices":[0,0,0,0,7,6,0,2,2,6,6,7,7,3,7,7,0,7,7,6,6,7,7,7,3,6,2,7,2,6,4,0,0,0,0,0,0,0,0,0,0,0,0,0,0,0,0,0,0,0,0,0,0,0,0,0,0,0,0,0,0,0,0],"split_type":[0,0,0,0,0,0,0,0,0,0,0,0,0,0,0,0,0,0,0,0,0,0,0,0,0,0,0,0,0,0,0,0,0,0,0,0,0,0,0,0,0,0,0,0,0,0,0,0,0,0,0,0,0,0,0,0,0,0,0,0,0,0,0],"sum_hessian":[1.3153E4,1.0291E4,2.862E3,6.03E3,4.261E3,1.859E3,1.003E3,3.288E3,2.742E3,5.24E2,3.737E3,1.649E3,2.1E2,5.18E2,4.85E2,6.73E2,2.615E3,1.248E3,1.494E3,3.07E2,2.17E2,3.282E3,4.55E2,1.101E3,5.48E2,4.1E1,1.69E2,1.98E2,3.2E2,3.66E2,1.19E2,3.58E2,3.15E2,9.93E2,1.622E3,8E1,1.168E3,3.64E2,1.13E3,2.17E2,9E1,1.79E2,3.8E1,1.905E3,1.377E3,3.31E2,1.24E2,1.97E2,9.04E2,4.03E2,1.45E2,1.3E1,2.8E1,9E0,1.6E2,3.5E1,1.63E2,1.63E2,1.57E2,3.57E2,9E0,4E0,1.15E2],"tree_param":{"num_deleted":"0","num_feature":"8","num_nodes":"63","size_leaf_vector":"1"}},{"base_weights":[-1.0781918E-3,-2.3085709E-1,6.000272E-1,-4.5697913E-1,-7.9687886E-2,3.5629693E-1,1.1355388E0,-9.123722E-2,-5.313153E-1,-9.415957E-3,-4.2169708E-1,7.6044494E-1,2.8269994E-1,8.8934386E-1,1.4599897E0,1.3335244E-1,-2.9956162E-1,-6.9935757E-1,-4.4924095E-1,8.03515E-1,-7.33067E-2,-1.8927877E-1,-4.9209985E-1,1.25141E0,5.873305E-1,3.4889898E-1,-1.5058102E-1,1.0130624E0,5.374737E-1,1.2345483E0,1.6153907E0,2.2883764E-2,-5.851003E-2,-2.3930803E-2,-6.573529E-2,4.475973E-2,-7.13128E-2,-2.5244782E-2,-5.560274E-2,5.6218803E-2,1.2223331E-1,5.2851305E-4,-3.427472E-2,8.293383E-3,-6.345331E-2,-4.650149E-2,-7.0707224E-2,3.180855E-2,1.3076E-1,7.7367865E-2,2.5518388E-2,5.013901E-2,1.141405E-2,3.402795E-3,-2.7531147E-2,4.7801275E-2,1.0808603E-1,3.813718E-2,8.377194E-2,1.4024878E-1,7.5103186E-2,1.0432615E-1,1.6681848E-1],"categories":[],"categories_nodes":[],"categories_segments":[],"categories_sizes":[],"default_left":[0,0,0,0,0,0,0,0,0,0,0,0,0,0,0,0,0,0,0,0,0,0,0,0,0,0,0,0,0,0,0,0,0,0,0,0,0,0,0,0,0,0,0,0,0,0,0,0,0,0,0,0,0,0,0,0,0,0,0,0,0,0,0],"id":6,"left_children":[1,3,5,7,9,11,13,15,17,19,21,23,25,27,29,31,33,35,37,39,41,43,45,47,49,51,53,55,57,59,61,-1,-1,-1,-1,-1,-1,-1,-1,-1,-1,-1,-1,-1,-1,-1,-1,-1,-1,-1,-1,-1,-1,-1,-1,-1,-1,-1,-1,-1,-1,-1,-1],"loss_changes":[1.8274836E3,3.2716025E2,4.7716956E2,1.0421698E2,1.3790106E2,7.4621124E1,9.008215E1,3.040504E1,4.3640747E1,2.4733937E2,1.5909775E1,3.215738E1,6.114685E1,2.7882446E1,1.5242432E1,2.1606194E1,7.107807E0,1.6808167E1,4.4915436E1,3.4384857E1,9.3493065E1,2.7808304E1,4.038086E0,4.828415E0,1.7628311E1,6.609856E1,6.525829E0,1.6967987E1,7.741974E0,1.5592987E1,6.95874E0,0E0,0E0,0E0,0E0,0E0,0E0,0E0,0E0,0E0,0E0,0E0,0E0,0E0,0E0,0E0,0E0,0E0,0E0,0E0,0E0,0E0,0E0,0E0,0E0,0E0,0E0,0E0,0E0,0E0,0E0,0E0,0E0],"parents":[2147483647,0,0,1,1,2,2,3,3,4,4,5,5,6,6,7,7,8,8,9,9,10,10,11,11,12,12,13,13,14,14,15,15,16,16,17,17,18,18,19,19,20,20,21,21,22,22,23,23,24,24,25,25,26,26,27,27,28,28,29,29,30,30],"right_children":[2,4,6,8,10,12,14,16,18,20,22,24,26,28,30,32,34,36,38,40,42,44,46,48,50,52,54,56,58,60,62,-1,-1,-1,-1,-1,-1,-1,-1,-1,-1,-1,-1,-1,-1,-1,-1,-1,-1,-1,-1,-1,-1,-1,-1,-1,-1,-1,-1,-1,-1,-1,-1],"split_conditions":[4.5673E0,2.7026E0,6.3303E0,3.5537758E0,3.795E1,-1.221E2,7.8287E0,-1.1828E2,1.9152E0,-1.2229E2,-1.2239E2,3.761E1,3.759E1,-1.179E2,8.7603E0,3.789E1,-1.1716E2,3.7E1,4.370968E0,3.777E1,-1.1776E2,3.875E1,3.939E1,3.733E1,-1.2239E2,-1.1802E2,3.798E1,9.539078E-1,1.054054E0,-1.1806E2,6.8920307E0,2.2883764E-2,-5.851003E-2,-2.3930803E-2,-6.573529E-2,4.475973E-2,-7.13128E-2,-2.5244782E-2,-5.560274E-2,5.6218803E-2,1.2223331E-1,5.2851305E-4,-3.427472E-2,8.293383E-3,-6.345331E-2,-4.650149E-2,-7.0707224E-2,3.180855E-2,1.3076E-1,7.7367865E-2,2.5518388E-2,5.013901E-2,1.141405E-2,3.402795E-3,-2.7531147E-2,4.7801275E-2,1.0808603E-1,3.813718E-2,8.377194E-2,1.4024878E-1,7.5103186E-2,1.0432615E-1,1.6681848E-1],"split_indices":[0,0,0,2,6,7,0,7,0,7,7,6,6,7,0,6,7,4,2,6,7,6,6,6,7,7,6,3,3,7,2,0,0,0,0,0,0,0,0,0,0,0,0,0,0,0,0,0,0,0,0,0,0,0,0,0,0,0,0,0,0,0,0],"split_type":[0,0,0,0,0,0,0,0,0,0,0,0,0,0,0,0,0,0,0,0,0,0,0,0,0,0,0,0,0,0,0,0,0,0,0,0,0,0,0,0,0,0,0,0,0,0,0,0,0,0,0,0,0,0,0,0,0,0,0,0,0,0,0],"sum_hessian":[1.3229E4,9.571E3,3.658E3,3.834E3,5.737E3,2.515E3,1.143E3,6.48E2,3.186E3,4.76E3,9.77E2,3.86E2,2.129E3,6.52E2,4.91E2,3.12E2,3.36E2,1.043E3,2.143E3,3.46E2,4.414E3,2.28E2,7.49E2,9.9E1,2.87E2,1.847E3,2.82E2,4.81E2,1.71E2,2.04E2,2.87E2,2.76E2,3.6E1,2.89E2,4.7E1,1.2E1,1.031E3,7.55E2,1.388E3,2.21E2,1.25E2,3.418E3,9.96E2,1.42E2,8.6E1,6.68E2,8.1E1,6E0,9.3E1,1.83E2,1.04E2,1.119E3,7.28E2,1.14E2,1.68E2,5.5E1,4.26E2,1.14E2,5.7E1,1.5E2,5.4E1,2.6E1,2.61E2],"tree_param":{"num_deleted":"0","num_feature":"8","num_nodes":"63","size_leaf_vector":"1"}},{"base_weights":[6.1690724E-3,-9.8858714E-2,4.9154934E-1,2.5467408E-1,-2.3991118E-1,6.329511E-1,-1.3556449E-1,-4.931211E-2,4.2944863E-1,-1.921734E-1,-4.9106592E-1,4.9792352E-1,1.091768E0,4.8287533E-2,-2.8911036E-1,5.1529184E-3,-4.630362E-1,1.9788724E-1,7.017446E-1,-2.974872E-1,-7.256293E-2,-4.5071074E-1,-9.1152585E-1,8.436322E-1,3.1995428E-1,9.1727054E-1,1.4148717E0,7.554245E-1,-9.343251E-2,-2.3941617E-1,-1.00199774E-1,-1.5367999E-2,1.9978262E-2,-3.76203E-2,-8.761554E-2,4.695728E-2,-4.063682E-2,1.2848672E-1,3.926566E-2,-3.742421E-3,-5.6086447E-2,1.3350494E-2,-2.4914823E-2,-2.8180439E-2,-5.2962143E-2,-6.9012465E-3,-9.188231E-2,3.1688236E-2,9.327347E-2,4.035616E-2,-7.599586E-3,7.2266445E-2,1.1810297E-1,1.4469467E-1,-1.1760441E-2,-3.2180533E-2,9.5928006E-2,-3.0125663E-2,5.635492E-2,-2.5609007E-2,1.7144227E-1],"categories":[],"categories_nodes":[],"categories_segments":[],"categories_sizes":[],"default_left":[0,0,0,0,0,0,0,0,0,0,0,0,0,0,0,0,0,0,0,0,0,0,0,0,0,0,0,0,0,0,0,0,0,0,0,0,0,0,0,0,0,0,0,0,0,0,0,0,0,0,0,0,0,0,0,0,0,0,0,0,0],"id":7,"left_children":[1,3,5,7,9,11,13,15,17,19,21,23,25,27,29,31,33,35,37,39,41,43,45,47,49,51,53,55,57,59,-1,-1,-1,-1,-1,-1,-1,-1,-1,-1,-1,-1,-1,-1,-1,-1,-1,-1,-1,-1,-1,-1,-1,-1,-1,-1,-1,-1,-1,-1,-1],"loss_changes":[6.7000696E2,5.388705E2,2.0740796E2,1.637649E2,9.251306E1,1.176626E2,1.2180973E1,2.5375101E1,1.2325632E2,8.175575E1,2.0510376E1,9.054175E1,2.3115051E1,1.981303E1,8.085302E0,3.082065E1,4.3696823E0,1.7404417E2,1.6152783E2,2.364227E2,1.10690865E2,1.4871994E1,5.944214E-1,2.321875E1,3.2340515E1,1.37239685E1,7.5433044E0,7.555475E0,2.2698318E1,7.638816E0,0E0,0E0,0E0,0E0,0E0,0E0,0E0,0E0,0E0,0E0,0E0,0E0,0E0,0E0,0E0,0E0,0E0,0E0,0E0,0E0,0E0,0E0,0E0,0E0,0E0,0E0,0E0,0E0,0E0,0E0,0E0],"parents":[2147483647,0,0,1,1,2,2,3,3,4,4,5,5,6,6,7,7,8,8,9,9,10,10,11,11,12,12,13,13,14,14,15,15,16,16,17,17,18,18,19,19,20,20,21,21,22,22,23,23,24,24,25,25,26,26,27,27,28,28,29,29],"right_children":[2,4,6,8,10,12,14,16,18,20,22,24,26,28,30,32,34,36,38,40,42,44,46,48,50,52,54,56,58,60,-1,-1,-1,-1,-1,-1,-1,-1,-1,-1,-1,-1,-1,-1,-1,-1,-1,-1,-1,-1,-1,-1,-1,-1,-1,-1,-1,-1,-1,-1,-1],"split_conditions":[6.378882E0,2.4479167E0,1.2586207E0,2.5E1,-1.1776E2,7.6062717E0,1.5897436E0,-1.1719E2,-1.1875E2,-1.1888E2,-1.1657E2,2.75E0,2.7E1,2.2095587E0,-1.1614E2,-1.1863E2,-1.1657E2,-1.2186E2,-1.1835E2,-1.2165E2,3.1365461E0,2.868687E0,1.01E2,1.5E1,1.1024182E0,8.096666E0,1.2155689E0,-1.2251E2,8.096666E0,2.5636364E1,-1.00199774E-1,-1.5367999E-2,1.9978262E-2,-3.76203E-2,-8.761554E-2,4.695728E-2,-4.063682E-2,1.2848672E-1,3.926566E-2,-3.742421E-3,-5.6086447E-2,1.3350494E-2,-2.4914823E-2,-2.8180439E-2,-5.2962143E-2,-6.9012465E-3,-9.188231E-2,3.1688236E-2,9.327347E-2,4.035616E-2,-7.599586E-3,7.2266445E-2,1.1810297E-1,1.4469467E-1,-1.1760441E-2,-3.2180533E-2,9.5928006E-2,-3.0125663E-2,5.635492E-2,-2.5609007E-2,1.7144227E-1],"split_indices":[2,5,3,1,7,2,3,7,7,7,7,5,1,5,7,7,7,7,7,7,5,5,4,1,3,2,3,7,2,3,0,0,0,0,0,0,0,0,0,0,0,0,0,0,0,0,0,0,0,0,0,0,0,0,0,0,0,0,0,0,0],"split_type":[0,0,0,0,0,0,0,0,0,0,0,0,0,0,0,0,0,0,0,0,0,0,0,0,0,0,0,0,0,0,0,0,0,0,0,0,0,0,0,0,0,0,0,0,0,0,0,0,0,0,0,0,0,0,0,0,0,0,0,0,0],"sum_hessian":[1.3141E4,1.0804E4,2.337E3,3.081E3,7.723E3,1.907E3,4.3E2,1.125E3,1.956E3,6.491E3,1.232E3,1.475E3,4.32E2,1.96E2,2.34E2,9.95E2,1.3E2,1.058E3,8.98E2,3.451E3,3.04E3,1.126E3,1.06E2,5E2,9.75E2,2.83E2,1.49E2,3.2E1,1.64E2,2.2E2,1.4E1,5.48E2,4.47E2,1.09E2,2.1E1,7.3E2,3.28E2,3.1E2,5.88E2,1.737E3,1.714E3,1.403E3,1.637E3,3.6E2,7.66E2,1E0,1.05E2,7.3E1,4.27E2,8.05E2,1.7E2,1.65E2,1.18E2,1.46E2,3E0,5E0,2.7E1,1.25E2,3.9E1,2.19E2,1E0],"tree_param":{"num_deleted":"0","num_feature":"8","num_nodes":"61","size_leaf_vector":"1"}},{"base_weights":[1.8750363E-3,-1.5254664E-1,6.5077454E-1,2.0345168E-1,-2.4511006E-1,4.033767E-1,9.768706E-1,-1.22379065E-1,4.9966484E-1,-3.7324655E-1,-4.2397078E-2,7.055702E-1,1.859647E-1,7.8824717E-1,1.235281E0,1.0171216E-2,-3.830025E-1,1.5590851E-1,7.129615E-1,-2.689247E-1,-4.810713E-1,1.3667554E-1,-1.4957511E-1,1.1364173E0,5.679267E-1,1.5585114E-1,6.689032E-1,6.5471864E-1,1.3915817E0,1.2534893E0,5.21037E-2,1.2255432E-1,-5.4198205E-3,-2.4767712E-2,-4.913806E-2,-2.021213E-3,3.8323626E-2,8.7549195E-2,-8.543443E-3,-1.5784493E-2,-5.292747E-2,-3.7411377E-2,-7.784677E-2,2.1552041E-2,-1.6291445E-2,3.042189E-3,-2.0575E-2,1.2033494E-1,-8.70657E-4,3.6944244E-2,7.367899E-2,7.4245594E-3,3.206477E-2,-2.1366419E-3,9.1876075E-2,9.230476E-2,5.7982214E-2,1.4067815E-1,-1.6299844E-2,1.3093646E-1,9.968355E-2,4.0490337E-2,-2.4055677E-2],"categories":[],"categories_nodes":[],"categories_segments":[],"categories_sizes":[],"default_left":[0,0,0,0,0,0,0,0,0,0,0,0,0,0,0,0,0,0,0,0,0,0,0,0,0,0,0,0,0,0,0,0,0,0,0,0,0,0,0,0,0,0,0,0,0,0,0,0,0,0,0,0,0,0,0,0,0,0,0,0,0,0,0],"id":8,"left_children":[1,3,5,7,9,11,13,15,17,19,21,23,25,27,29,31,33,35,37,39,41,43,45,47,49,51,53,55,57,59,61,-1,-1,-1,-1,-1,-1,-1,-1,-1,-1,-1,-1,-1,-1,-1,-1,-1,-1,-1,-1,-1,-1,-1,-1,-1,-1,-1,-1,-1,-1,-1,-1],"loss_changes":[1.3203892E3,3.5079544E2,2.0395691E2,2.1210538E2,2.1942035E2,9.460892E1,5.2252808E1,3.6173252E1,8.428256E1,5.8092773E1,6.2837997E1,3.5114502E1,1.2111874E1,5.0165436E1,9.823242E0,5.4438213E1,5.0555E0,1.7704147E1,9.220697E1,7.606183E1,8.063031E1,2.8994623E1,2.0714214E1,1.1124084E1,1.5111969E1,1.0627256E1,8.470615E0,9.935272E0,2.9230347E0,5.176697E0,9.2340624E-1,0E0,0E0,0E0,0E0,0E0,0E0,0E0,0E0,0E0,0E0,0E0,0E0,0E0,0E0,0E0,0E0,0E0,0E0,0E0,0E0,0E0,0E0,0E0,0E0,0E0,0E0,0E0,0E0,0E0,0E0,0E0,0E0],"parents":[2147483647,0,0,1,1,2,2,3,3,4,4,5,5,6,6,7,7,8,8,9,9,10,10,11,11,12,12,13,13,14,14,15,15,16,16,17,17,18,18,19,19,20,20,21,21,22,22,23,23,24,24,25,25,26,26,27,27,28,28,29,29,30,30],"right_children":[2,4,6,8,10,12,14,16,18,20,22,24,26,28,30,32,34,36,38,40,42,44,46,48,50,52,54,56,58,60,62,-1,-1,-1,-1,-1,-1,-1,-1,-1,-1,-1,-1,-1,-1,-1,-1,-1,-1,-1,-1,-1,-1,-1,-1,-1,-1,-1,-1,-1,-1,-1,-1],"split_conditions":[5.1442E0,2.3071065E0,6.396E0,3.0081E0,3.5488E0,2.744E0,2.7E1,3.782E1,2.5E1,3.445E1,2.7721179E0,2.261438E0,3.7E1,9.3125E0,3.8E1,-1.2229E2,3.852E1,3.875E0,3.782E1,-1.1767E2,-1.2016E2,3.794E1,-1.2149E2,3.795E1,5.5951E0,5.901E0,5.68435E0,2.657944E0,3.799E1,3.759E1,2.3421052E0,1.2255432E-1,-5.4198205E-3,-2.4767712E-2,-4.913806E-2,-2.021213E-3,3.8323626E-2,8.7549195E-2,-8.543443E-3,-1.5784493E-2,-5.292747E-2,-3.7411377E-2,-7.784677E-2,2.1552041E-2,-1.6291445E-2,3.042189E-3,-2.0575E-2,1.2033494E-1,-8.70657E-4,3.6944244E-2,7.367899E-2,7.4245594E-3,3.206477E-2,-2.1366419E-3,9.1876075E-2,9.230476E-2,5.7982214E-2,1.4067815E-1,-1.6299844E-2,1.3093646E-1,9.968355E-2,4.0490337E-2,-2.4055677E-2],"split_indices":[0,5,0,0,0,5,1,6,1,6,5,5,1,0,6,7,6,0,6,7,7,6,7,6,0,0,2,5,6,6,5,0,0,0,0,0,0,0,0,0,0,0,0,0,0,0,0,0,0,0,0,0,0,0,0,0,0,0,0,0,0,0,0],"split_type":[0,0,0,0,0,0,0,0,0,0,0,0,0,0,0,0,0,0,0,0,0,0,0,0,0,0,0,0,0,0,0,0,0,0,0,0,0,0,0,0,0,0,0,0,0,0,0,0,0,0,0,0,0,0,0,0,0,0,0,0,0,0,0],"sum_hessian":[1.3175E4,1.0643E4,2.532E3,2.196E3,8.447E3,1.441E3,1.091E3,1.046E3,1.15E3,5.175E3,3.272E3,6.02E2,8.39E2,6.33E2,4.58E2,6.94E2,3.52E2,4.41E2,7.09E2,2.632E3,2.543E3,1.225E3,2.047E3,1.44E2,4.58E2,7.91E2,4.8E1,5.2E2,1.13E2,4.51E2,7E0,3.4E1,6.6E2,1.58E2,1.94E2,2.49E2,1.92E2,5.89E2,1.2E2,1.846E3,7.86E2,1.872E3,6.71E2,9.7E2,2.55E2,4.87E2,1.56E3,1.36E2,8E0,2.12E2,2.46E2,5.3E2,2.61E2,1.3E1,3.5E1,1.11E2,4.09E2,1.12E2,1E0,3.67E2,8.4E1,3E0,4E0],"tree_param":{"num_deleted":"0","num_feature":"8","num_nodes":"63","size_leaf_vector":"1"}},{"base_weights":[2.958727E-4,-2.1797876E-1,3.91117E-1,2.2663303E-1,-2.722824E-1,2.400206E-1,8.6023444E-1,-6.631594E-2,4.8525193E-1,-3.9364922E-1,-1.6115971E-1,7.278745E-1,9.704544E-2,6.69069E-1,1.1235787E0,1.1695274E-1,-3.276145E-1,5.9501296E-1,-1.9784503E-1,-2.6340598E-1,-4.936152E-1,-1.9624509E-1,2.2601204E-1,1.3803282E-1,8.9340615E-1,3.3381724E-1,2.3967449E-2,4.305151E-1,8.536148E-1,1.1785392E0,7.5597334E-1,2.8458497E-2,-2.1967163E-2,1.7934583E-2,-3.9569948E-2,8.371099E-2,1.3147508E-2,4.0025366E-3,-4.3006267E-2,-2.1526238E-2,-5.123421E-2,-4.636308E-2,-6.80171E-2,-9.748038E-3,-3.0859724E-2,6.4013004E-2,2.1665755E-3,4.8380536E-3,5.846816E-2,1.3422112E-1,7.1369685E-2,4.760184E-2,1.5713634E-3,1.143336E-2,-2.4768565E-2,4.7403898E-2,8.118303E-3,1.1350109E-1,6.877739E-2,-2.7834672E-2,1.1896612E-1,8.88995E-2,-7.784734E-3],"categories":[],"categories_nodes":[],"categories_segments":[],"categories_sizes":[],"default_left":[0,0,0,0,0,0,0,0,0,0,0,0,0,0,0,0,0,0,0,0,0,0,0,0,0,0,0,0,0,0,0,0,0,0,0,0,0,0,0,0,0,0,0,0,0,0,0,0,0,0,0,0,0,0,0,0,0,0,0,0,0,0,0],"id":9,"left_children":[1,3,5,7,9,11,13,15,17,19,21,23,25,27,29,31,33,35,37,39,41,43,45,47,49,51,53,55,57,59,61,-1,-1,-1,-1,-1,-1,-1,-1,-1,-1,-1,-1,-1,-1,-1,-1,-1,-1,-1,-1,-1,-1,-1,-1,-1,-1,-1,-1,-1,-1,-1,-1],"loss_changes":[1.1328682E3,2.0579303E2,3.3712073E2,7.033945E1,1.0235388E2,2.511027E2,5.759503E1,2.0917414E1,3.7081596E1,4.711914E1,5.391877E1,7.954883E1,4.8197628E1,2.9304749E1,8.92804E0,1.4564792E1,6.2839165E0,4.7583908E1,3.828615E0,1.8801537E1,1.1163025E1,4.032762E1,2.7911877E1,7.179467E0,5.0418915E1,2.9711708E1,5.2316082E1,4.4619827E0,1.6906158E1,7.152832E0,7.3896713E0,0E0,0E0,0E0,0E0,0E0,0E0,0E0,0E0,0E0,0E0,0E0,0E0,0E0,0E0,0E0,0E0,0E0,0E0,0E0,0E0,0E0,0E0,0E0,0E0,0E0,0E0,0E0,0E0,0E0,0E0,0E0,0E0],"parents":[2147483647,0,0,1,1,2,2,3,3,4,4,5,5,6,6,7,7,8,8,9,9,10,10,11,11,12,12,13,13,14,14,15,15,16,16,17,17,18,18,19,19,20,20,21,21,22,22,23,23,24,24,25,25,26,26,27,27,28,28,29,29,30,30],"right_children":[2,4,6,8,10,12,14,16,18,20,22,24,26,28,30,32,34,36,38,40,42,44,46,48,50,52,54,56,58,60,62,-1,-1,-1,-1,-1,-1,-1,-1,-1,-1,-1,-1,-1,-1,-1,-1,-1,-1,-1,-1,-1,-1,-1,-1,-1,-1,-1,-1,-1,-1,-1,-1],"split_conditions":[4.1304E0,2.0382166E0,6.3303E0,2.7026E0,2.7813E0,2.4479167E0,7.8287E0,4.2588453E0,3.782E1,4.3166523E0,4.8E1,1.7E1,-1.2188E2,2.2E1,-1.1776E2,-1.1824E2,3.315E1,-1.1827E2,-1.2211E2,-1.1781E2,3.939E1,3.445E1,-1.2239E2,5.6392E0,2.0660264E0,3.794E1,3.463E1,3.794E1,2.5964286E0,4.6782274E0,3.387E1,2.8458497E-2,-2.1967163E-2,1.7934583E-2,-3.9569948E-2,8.371099E-2,1.3147508E-2,4.0025366E-3,-4.3006267E-2,-2.1526238E-2,-5.123421E-2,-4.636308E-2,-6.80171E-2,-9.748038E-3,-3.0859724E-2,6.4013004E-2,2.1665755E-3,4.8380536E-3,5.846816E-2,1.3422112E-1,7.1369685E-2,4.760184E-2,1.5713634E-3,1.143336E-2,-2.4768565E-2,4.7403898E-2,8.118303E-3,1.1350109E-1,6.877739E-2,-2.7834672E-2,1.1896612E-1,8.88995E-2,-7.784734E-3],"split_indices":[0,5,0,0,0,5,0,2,6,2,1,1,7,1,7,7,6,7,7,7,6,6,7,0,5,6,6,6,5,2,6,0,0,0,0,0,0,0,0,0,0,0,0,0,0,0,0,0,0,0,0,0,0,0,0,0,0,0,0,0,0,0,0],"split_type":[0,0,0,0,0,0,0,0,0,0,0,0,0,0,0,0,0,0,0,0,0,0,0,0,0,0,0,0,0,0,0,0,0,0,0,0,0,0,0,0,0,0,0,0,0,0,0,0,0,0,0,0,0,0,0,0,0,0,0,0,0,0,0],"sum_hessian":[1.3278E4,8.52E3,4.758E3,9.27E2,7.593E3,3.6E3,1.158E3,4.35E2,4.92E2,3.628E3,3.965E3,8.15E2,2.785E3,6.73E2,4.85E2,2.56E2,1.79E2,4.24E2,6.8E1,1.577E3,2.051E3,3.636E3,3.29E2,1.79E2,6.36E2,6.56E2,2.129E3,2.95E2,3.78E2,4.2E2,6.5E1,1.71E2,8.5E1,2.1E1,1.58E2,2.78E2,1.46E2,3.4E1,3.4E1,1.323E3,2.54E2,1.77E3,2.81E2,1.936E3,1.7E3,1.08E2,2.21E2,1.5E2,2.9E1,1.8E2,4.56E2,4.53E2,2.03E2,1.598E3,5.31E2,2.62E2,3.3E1,1.38E2,2.4E2,3E0,4.17E2,5.6E1,9E0],"tree_param":{"num_deleted":"0","num_feature":"8","num_nodes":"63","size_leaf_vector":"1"}},{"base_weights":[7.816648E-4,-1.1908883E-1,5.735017E-1,-3.0786142E-1,1.33903455E-2,4.252073E-1,9.4404113E-1,-1.9336939E-1,-4.1320923E-1,3.018368E-1,-1.3016456E-1,7.811077E-1,2.8345555E-1,8.007521E-1,1.1448642E0,-3.006752E-1,-5.3209465E-2,-6.0151625E-1,-3.4008676E-1,3.8734144E-1,-1.6948612E-1,-2.216185E-1,-4.1376535E-2,8.335214E-1,1.1185515E-1,4.2493418E-1,1.4992698E-1,6.232653E-1,1.0438191E0,1.2050667E0,7.6857346E-1,-4.4611048E-2,-1.9540958E-2,4.5992944E-2,-1.1279951E-2,-3.720526E-2,-6.602601E-2,-1.3893992E-2,-4.6790224E-2,3.901392E-3,4.995207E-2,-2.4356622E-2,3.301713E-3,-1.783233E-2,-4.1830838E-2,6.743995E-3,-1.3598437E-2,4.618408E-2,9.286169E-2,-6.3699275E-2,1.7654268E-2,3.607395E-2,7.37469E-2,1.8295607E-2,-1.9752594E-2,-5.3555172E-2,6.360599E-2,-6.842246E-2,1.0698588E-1,4.205816E-2,1.2349756E-1,8.0673054E-2,-3.597759E-2],"categories":[],"categories_nodes":[],"categories_segments":[],"categories_sizes":[],"default_left":[0,0,0,0,0,0,0,0,0,0,0,0,0,0,0,0,0,0,0,0,0,0,0,0,0,0,0,0,0,0,0,0,0,0,0,0,0,0,0,0,0,0,0,0,0,0,0,0,0,0,0,0,0,0,0,0,0,0,0,0,0,0,0],"id":10,"left_children":[1,3,5,7,9,11,13,15,17,19,21,23,25,27,29,31,33,35,37,39,41,43,45,47,49,51,53,55,57,59,61,-1,-1,-1,-1,-1,-1,-1,-1,-1,-1,-1,-1,-1,-1,-1,-1,-1,-1,-1,-1,-1,-1,-1,-1,-1,-1,-1,-1,-1,-1,-1,-1],"loss_changes":[9.0874927E2,2.7374646E2,1.2548663E2,5.436563E1,2.6641632E2,8.241489E1,1.7902527E1,3.2545555E1,3.2153687E1,8.622769E1,3.4874405E1,1.6253113E1,2.2095947E1,1.5958786E1,5.1903076E0,1.8682068E1,2.879517E1,8.596939E0,4.351291E1,7.070648E1,4.9435215E0,1.7944687E1,2.2462334E1,1.484021E1,1.8078959E0,1.1149849E1,6.979148E0,3.6766129E0,7.976654E0,4.900543E0,2.0124207E0,0E0,0E0,0E0,0E0,0E0,0E0,0E0,0E0,0E0,0E0,0E0,0E0,0E0,0E0,0E0,0E0,0E0,0E0,0E0,0E0,0E0,0E0,0E0,0E0,0E0,0E0,0E0,0E0,0E0,0E0,0E0,0E0],"parents":[2147483647,0,0,1,1,2,2,3,3,4,4,5,5,6,6,7,7,8,8,9,9,10,10,11,11,12,12,13,13,14,14,15,15,16,16,17,17,18,18,19,19,20,20,21,21,22,22,23,23,24,24,25,25,26,26,27,27,28,28,29,29,30,30],"right_children":[2,4,6,8,10,12,14,16,18,20,22,24,26,28,30,32,34,36,38,40,42,44,46,48,50,52,54,56,58,60,62,-1,-1,-1,-1,-1,-1,-1,-1,-1,-1,-1,-1,-1,-1,-1,-1,-1,-1,-1,-1,-1,-1,-1,-1,-1,-1,-1,-1,-1,-1,-1,-1],"split_conditions":[5.296E0,2.9219E0,7.3463E0,3.453E1,2.526777E0,2.5964286E0,3E1,3.401E1,3.684E1,3.794E1,3.9336E0,3.796E1,3.0268817E0,8.7603E0,3.781E1,2.1287E0,2.0897436E0,3.533E1,3.791E1,2E1,1.369E3,3.789E1,2.972441E0,1.7E1,6.9E1,3.7E1,3.796E1,1.6914716E0,6.9E1,1.37E2,1.688E3,-4.4611048E-2,-1.9540958E-2,4.5992944E-2,-1.1279951E-2,-3.720526E-2,-6.602601E-2,-1.3893992E-2,-4.6790224E-2,3.901392E-3,4.995207E-2,-2.4356622E-2,3.301713E-3,-1.783233E-2,-4.1830838E-2,6.743995E-3,-1.3598437E-2,4.618408E-2,9.286169E-2,-6.3699275E-2,1.7654268E-2,3.607395E-2,7.37469E-2,1.8295607E-2,-1.9752594E-2,-5.3555172E-2,6.360599E-2,-6.842246E-2,1.0698588E-1,4.205816E-2,1.2349756E-1,8.0673054E-2,-3.597759E-2],"split_indices":[0,0,0,6,5,5,1,6,6,6,0,6,5,0,6,0,5,6,6,1,4,6,5,1,4,1,6,5,4,4,4,0,0,0,0,0,0,0,0,0,0,0,0,0,0,0,0,0,0,0,0,0,0,0,0,0,0,0,0,0,0,0,0],"split_type":[0,0,0,0,0,0,0,0,0,0,0,0,0,0,0,0,0,0,0,0,0,0,0,0,0,0,0,0,0,0,0,0,0,0,0,0,0,0,0,0,0,0,0,0,0,0,0,0,0,0,0,0,0,0,0,0,0,0,0,0,0,0,0],"sum_hessian":[1.3235E4,1.0945E4,2.29E3,4.513E3,6.432E3,1.637E3,6.53E2,2.164E3,2.349E3,2.137E3,4.295E3,4.65E2,1.172E3,3.84E2,2.69E2,1.225E3,9.39E2,6.55E2,1.694E3,1.809E3,3.28E2,2.115E3,2.18E3,4.31E2,3.4E1,5.68E2,6.04E2,2.24E2,1.6E2,2.3E2,3.9E1,5.13E2,7.12E2,9.7E1,8.42E2,1.35E2,5.2E2,6.59E2,1.035E3,4.41E2,1.368E3,2.4E2,8.8E1,1.735E3,3.8E2,1.014E3,1.166E3,8.9E1,3.42E2,2E0,3.2E1,4.73E2,9.5E1,5.52E2,5.2E1,2E0,2.22E2,2E0,1.58E2,9E0,2.21E2,3.8E1,1E0],"tree_param":{"num_deleted":"0","num_feature":"8","num_nodes":"63","size_leaf_vector":"1"}},{"base_weights":[-7.28193E-4,-1.5811494E-1,3.5787272E-1,-3.2651845E-1,-7.699109E-2,2.1794072E-1,6.907043E-1,-3.6913965E-2,-3.9666995E-1,-1.1459422E-1,2.8874642E-1,1.5304933E-1,5.753119E-1,5.7823247E-1,9.622764E-1,-2.4363361E-1,9.788046E-2,-5.0146115E-1,-3.256296E-1,-2.5835967E-2,-2.2101745E-1,7.4269485E-1,6.917963E-2,-2.359363E-2,2.2911364E-1,1.5183134E0,5.2620745E-1,4.6158847E-1,8.8576996E-1,9.8351717E-1,-6.073907E-2,1.03089646E-1,-2.6501903E-2,-9.989038E-3,2.7397592E-2,-1.2463196E-2,-5.096946E-2,-2.3245774E-2,-4.0886786E-2,3.5617746E-2,-1.4567544E-2,-1.2656748E-2,-7.068453E-2,-5.1327713E-2,8.087117E-2,3.788455E-2,-1.1970812E-2,-8.176716E-3,1.7057551E-2,2.5959525E-2,-3.1126304E-2,1.6174532E-1,-2.322414E-2,6.718272E-2,2.1920474E-2,5.3723373E-2,3.0348537E-2,9.755378E-2,5.3243782E-2,1.7557306E-2,1.00746825E-1,-4.0640775E-2,1.2221846E-2],"categories":[],"categories_nodes":[],"categories_segments":[],"categories_sizes":[],"default_left":[0,0,0,0,0,0,0,0,0,0,0,0,0,0,0,0,0,0,0,0,0,0,0,0,0,0,0,0,0,0,0,0,0,0,0,0,0,0,0,0,0,0,0,0,0,0,0,0,0,0,0,0,0,0,0,0,0,0,0,0,0,0,0],"id":11,"left_children":[1,3,5,7,9,11,13,15,17,19,21,23,25,27,29,31,33,35,37,39,41,43,45,47,49,51,53,55,57,59,61,-1,-1,-1,-1,-1,-1,-1,-1,-1,-1,-1,-1,-1,-1,-1,-1,-1,-1,-1,-1,-1,-1,-1,-1,-1,-1,-1,-1,-1,-1,-1,-1],"loss_changes":[7.4420526E2,1.25169235E2,1.8716925E2,6.0507294E1,8.510837E1,6.561008E1,3.57912E1,1.6241077E1,1.7688354E1,5.2986015E1,5.7459362E1,3.223891E1,1.9343979E1,2.9867432E1,7.599884E0,6.5421677E0,1.2321138E1,2.9366913E0,1.1010788E1,1.4013956E2,1.169668E2,1.6003181E1,2.2857264E1,8.180596E0,2.7703575E1,4.0201836E0,1.8405586E1,7.180237E0,6.807419E0,6.402527E0,5.5561197E-1,0E0,0E0,0E0,0E0,0E0,0E0,0E0,0E0,0E0,0E0,0E0,0E0,0E0,0E0,0E0,0E0,0E0,0E0,0E0,0E0,0E0,0E0,0E0,0E0,0E0,0E0,0E0,0E0,0E0,0E0,0E0,0E0],"parents":[2147483647,0,0,1,1,2,2,3,3,4,4,5,5,6,6,7,7,8,8,9,9,10,10,11,11,12,12,13,13,14,14,15,15,16,16,17,17,18,18,19,19,20,20,21,21,22,22,23,23,24,24,25,25,26,26,27,27,28,28,29,29,30,30],"right_children":[2,4,6,8,10,12,14,16,18,20,22,24,26,28,30,32,34,36,38,40,42,44,46,48,50,52,54,56,58,60,62,-1,-1,-1,-1,-1,-1,-1,-1,-1,-1,-1,-1,-1,-1,-1,-1,-1,-1,-1,-1,-1,-1,-1,-1,-1,-1,-1,-1,-1,-1,-1,-1],"split_conditions":[4.4063E0,2.4559E0,6.2715E0,3.5537758E0,4.8E1,3.9E1,8.4471E0,3.405E1,1.875E0,3.453E1,-1.2232E2,1.7E1,3.375E1,3.3E1,3.799E1,-1.1847E2,1.278E3,6.9E1,3.533E1,-1.183E2,-1.1997E2,-1.227E2,3.412E1,5.6392E0,-1.1721E2,-1.1716E2,-1.1836E2,-1.1789E2,3.781E1,6.9E1,3.834E1,1.03089646E-1,-2.6501903E-2,-9.989038E-3,2.7397592E-2,-1.2463196E-2,-5.096946E-2,-2.3245774E-2,-4.0886786E-2,3.5617746E-2,-1.4567544E-2,-1.2656748E-2,-7.068453E-2,-5.1327713E-2,8.087117E-2,3.788455E-2,-1.1970812E-2,-8.176716E-3,1.7057551E-2,2.5959525E-2,-3.1126304E-2,1.6174532E-1,-2.322414E-2,6.718272E-2,2.1920474E-2,5.3723373E-2,3.0348537E-2,9.755378E-2,5.3243782E-2,1.7557306E-2,1.00746825E-1,-4.0640775E-2,1.2221846E-2],"split_indices":[0,0,0,2,1,1,0,6,0,6,7,1,6,1,6,7,4,4,6,7,7,7,6,0,7,7,7,7,6,4,6,0,0,0,0,0,0,0,0,0,0,0,0,0,0,0,0,0,0,0,0,0,0,0,0,0,0,0,0,0,0,0,0],"split_type":[0,0,0,0,0,0,0,0,0,0,0,0,0,0,0,0,0,0,0,0,0,0,0,0,0,0,0,0,0,0,0,0,0,0,0,0,0,0,0,0,0,0,0,0,0,0,0,0,0,0,0,0,0,0,0,0,0,0,0,0,0,0,0],"sum_hessian":[1.3184E4,9.163E3,4.021E3,2.978E3,6.185E3,2.832E3,1.189E3,5.81E2,2.397E3,5.609E3,5.76E2,2.398E3,4.34E2,8.43E2,3.46E2,2.29E2,3.52E2,9.66E2,1.431E3,3.059E3,2.55E3,1.87E2,3.89E2,7.22E2,1.676E3,2E1,4.14E2,6.13E2,2.3E2,3.39E2,7E0,3E0,2.26E2,1.66E2,1.86E2,2.1E1,9.45E2,6.77E2,7.54E2,7.3E2,2.329E3,2.136E3,4.14E2,9E0,1.78E2,1.47E2,2.42E2,5.56E2,1.66E2,1.587E3,8.9E1,1.9E1,1E0,2.8E2,1.34E2,4.13E2,2E2,1.82E2,4.8E1,1E1,3.29E2,2E0,5E0],"tree_param":{"num_deleted":"0","num_feature":"8","num_nodes":"63","size_leaf_vector":"1"}},{"base_weights":[1.7685803E-3,-1.6319783E-1,2.938998E-1,1.7517552E-1,-2.1547425E-1,1.4502011E-1,5.655438E-1,-8.645048E-2,3.4365144E-1,-3.5092184E-1,-1.6716401E-1,5.884744E-1,3.2614782E-2,6.956927E-1,3.3628163E-1,-3.8333554E-2,-4.2694625E-1,4.4630727E-1,-1.9011085E-1,-8.997705E-2,-4.0914682E-1,1.192493E-1,-1.9235642E-1,6.504927E-1,1.2500013E-1,1.932618E-1,-3.8479555E-2,7.827825E-1,4.0224972E-1,1.2777247E-1,6.28184E-1,5.986067E-3,-2.27108E-2,7.135328E-2,-4.834461E-2,6.334874E-2,-2.9624964E-5,4.576189E-3,-4.7313046E-2,-3.130534E-2,7.832782E-3,-4.1408192E-2,1.2242722E-1,5.573384E-2,-3.294836E-2,-1.0198726E-2,-3.0492488E-2,7.478242E-2,2.4432903E-2,4.9147345E-2,-9.138013E-3,3.9117604E-2,7.9815177E-4,4.9083214E-3,-4.0783446E-2,8.941386E-2,4.770357E-2,8.39855E-2,2.1240605E-2,-2.150757E-2,1.6653052E-2,5.0362706E-2,1.0181018E-1],"categories":[],"categories_nodes":[],"categories_segments":[],"categories_sizes":[],"default_left":[0,0,0,0,0,0,0,0,0,0,0,0,0,0,0,0,0,0,0,0,0,0,0,0,0,0,0,0,0,0,0,0,0,0,0,0,0,0,0,0,0,0,0,0,0,0,0,0,0,0,0,0,0,0,0,0,0,0,0,0,0,0,0],"id":12,"left_children":[1,3,5,7,9,11,13,15,17,19,21,23,25,27,29,31,33,35,37,39,41,43,45,47,49,51,53,55,57,59,61,-1,-1,-1,-1,-1,-1,-1,-1,-1,-1,-1,-1,-1,-1,-1,-1,-1,-1,-1,-1,-1,-1,-1,-1,-1,-1,-1,-1,-1,-1,-1,-1],"loss_changes":[6.386862E2,1.4986316E2,1.933534E2,5.00138E1,4.795105E1,1.5405673E2,5.0282104E1,7.274341E0,3.7892586E1,2.9256287E1,3.9058487E1,1.7883621E1,2.8183277E1,2.7259949E1,3.7351295E1,7.26139E0,3.8889818E0,4.8401863E1,7.4983907E0,1.3277849E1,1.3211151E1,8.6287865E1,5.0557816E1,2.15997E1,5.9922304E0,2.775577E1,5.535673E1,2.7866364E1,2.0507683E1,4.8195434E0,1.1920403E1,0E0,0E0,0E0,0E0,0E0,0E0,0E0,0E0,0E0,0E0,0E0,0E0,0E0,0E0,0E0,0E0,0E0,0E0,0E0,0E0,0E0,0E0,0E0,0E0,0E0,0E0,0E0,0E0,0E0,0E0,0E0,0E0],"parents":[2147483647,0,0,1,1,2,2,3,3,4,4,5,5,6,6,7,7,8,8,9,9,10,10,11,11,12,12,13,13,14,14,15,15,16,16,17,17,18,18,19,19,20,20,21,21,22,22,23,23,24,24,25,25,26,26,27,27,28,28,29,29,30,30],"right_children":[2,4,6,8,10,12,14,16,18,20,22,24,26,28,30,32,34,36,38,40,42,44,46,48,50,52,54,56,58,60,62,-1,-1,-1,-1,-1,-1,-1,-1,-1,-1,-1,-1,-1,-1,-1,-1,-1,-1,-1,-1,-1,-1,-1,-1,-1,-1,-1,-1,-1,-1,-1,-1],"split_conditions":[4.1304E0,2.1201718E0,5.7833E0,2.5658E0,2.2202E0,2.380841E0,3.0130434E0,-1.1712E2,3.782E1,3.5088196E0,-1.2239E2,3.789E1,-1.2144E2,3.761E1,7.0568E0,3.789E1,8.836E-1,-1.1811E2,-1.2211E2,3.405E1,1.6883562E1,3.834E1,3.453E1,-1.1785E2,-1.2244E2,3.763E1,3.463E1,-1.18E2,-1.2241E2,9.494681E-1,1.00707E1,5.986067E-3,-2.27108E-2,7.135328E-2,-4.834461E-2,6.334874E-2,-2.9624964E-5,4.576189E-3,-4.7313046E-2,-3.130534E-2,7.832782E-3,-4.1408192E-2,1.2242722E-1,5.573384E-2,-3.294836E-2,-1.0198726E-2,-3.0492488E-2,7.478242E-2,2.4432903E-2,4.9147345E-2,-9.138013E-3,3.9117604E-2,7.9815177E-4,4.9083214E-3,-4.0783446E-2,8.941386E-2,4.770357E-2,8.39855E-2,2.1240605E-2,-2.150757E-2,1.6653052E-2,5.0362706E-2,1.0181018E-1],"split_indices":[0,5,0,0,0,5,5,7,6,2,7,6,7,6,0,6,0,7,7,6,2,6,6,7,7,6,6,7,7,3,0,0,0,0,0,0,0,0,0,0,0,0,0,0,0,0,0,0,0,0,0,0,0,0,0,0,0,0,0,0,0,0,0],"split_type":[0,0,0,0,0,0,0,0,0,0,0,0,0,0,0,0,0,0,0,0,0,0,0,0,0,0,0,0,0,0,0,0,0,0,0,0,0,0,0,0,0,0,0,0,0,0,0,0,0,0,0,0,0,0,0,0,0,0,0,0,0,0,0],"sum_hessian":[1.3251E4,8.469E3,4.782E3,1.133E3,7.336E3,3.09E3,1.692E3,4.44E2,6.89E2,1.927E3,5.409E3,6.24E2,2.466E3,1.078E3,6.14E2,3.9E2,5.4E1,5.78E2,1.11E2,3.52E2,1.575E3,4.37E2,4.972E3,5.5E2,7.4E1,7.56E2,1.71E3,8.3E2,2.48E2,3.59E2,2.55E2,2.57E2,1.33E2,2E0,5.2E1,4.07E2,1.71E2,6.1E1,5E1,1.51E2,2.01E2,1.571E3,4E0,2.21E2,2.16E2,2.759E3,2.213E3,4.43E2,1.07E2,2.7E1,4.7E1,3.65E2,3.91E2,1.383E3,3.27E2,6.07E2,2.23E2,7.4E1,1.74E2,3.6E1,3.23E2,1.95E2,6E1],"tree_param":{"num_deleted":"0","num_feature":"8","num_nodes":"63","size_leaf_vector":"1"}},{"base_weights":[-1.3188335E-4,-1.6661842E-1,2.233168E-1,1.0768264E-1,-2.1685515E-1,1.3650195E-1,5.933886E-1,2.0534465E-1,-1.9558267E-1,-1.4529079E-1,-2.8744066E-1,4.3841147E-1,1.8581556E-2,4.9656776E-1,7.695799E-1,1.0004897E-2,3.22742E-1,6.7337286E-1,-2.0717362E-1,-6.007715E-2,-2.5627202E-1,-4.7589922E-1,-2.1622255E-1,5.096566E-1,-1.8602854E-2,-2.8050786E-2,2.1330658E-1,7.420892E-1,3.899617E-1,4.1457877E-2,7.974707E-1,-4.9695194E-2,7.676609E-3,6.755753E-2,1.8521225E-2,1.4989118E-1,-1.01444125E-2,-6.847719E-2,-1.9078977E-2,-1.3667558E-2,3.2158268E-3,-3.244942E-2,-2.0728437E-2,-3.2908607E-2,-5.2302014E-2,-4.443712E-3,-3.4480356E-2,7.896613E-2,4.0450078E-2,-2.9075313E-2,3.7832395E-3,5.9069E-3,-1.211968E-2,3.6004197E-2,1.0586529E-2,8.715864E-2,3.980866E-2,2.0997824E-2,4.8788264E-2,-1.1186353E-1,3.0598262E-2,8.1108026E-2,-1.4974415E-2],"categories":[],"categories_nodes":[],"categories_segments":[],"categories_sizes":[],"default_left":[0,0,0,0,0,0,0,0,0,0,0,0,0,0,0,0,0,0,0,0,0,0,0,0,0,0,0,0,0,0,0,0,0,0,0,0,0,0,0,0,0,0,0,0,0,0,0,0,0,0,0,0,0,0,0,0,0,0,0,0,0,0,0],"id":13,"left_children":[1,3,5,7,9,11,13,15,17,19,21,23,25,27,29,31,33,35,37,39,41,43,45,47,49,51,53,55,57,59,61,-1,-1,-1,-1,-1,-1,-1,-1,-1,-1,-1,-1,-1,-1,-1,-1,-1,-1,-1,-1,-1,-1,-1,-1,-1,-1,-1,-1,-1,-1,-1,-1],"loss_changes":[4.9124182E2,1.0429657E2,1.8105515E2,3.4751873E1,3.226703E1,1.6261856E2,1.7888031E1,2.033778E1,3.0201025E0,3.0039307E1,4.310141E1,4.1783997E1,2.9844454E1,1.7875427E1,7.643341E0,1.1342392E1,2.6757763E1,2.7106223E0,2.0837984E0,1.2714489E1,4.5447617E0,5.929535E0,5.162722E1,3.2363586E1,2.683443E0,2.1527765E1,9.972939E0,8.96344E0,8.462883E0,4.9453835E0,4.8138275E0,0E0,0E0,0E0,0E0,0E0,0E0,0E0,0E0,0E0,0E0,0E0,0E0,0E0,0E0,0E0,0E0,0E0,0E0,0E0,0E0,0E0,0E0,0E0,0E0,0E0,0E0,0E0,0E0,0E0,0E0,0E0,0E0],"parents":[2147483647,0,0,1,1,2,2,3,3,4,4,5,5,6,6,7,7,8,8,9,9,10,10,11,11,12,12,13,13,14,14,15,15,16,16,17,17,18,18,19,19,20,20,21,21,22,22,23,23,24,24,25,25,26,26,27,27,28,28,29,29,30,30],"right_children":[2,4,6,8,10,12,14,16,18,20,22,24,26,28,30,32,34,36,38,40,42,44,46,48,50,52,54,56,58,60,62,-1,-1,-1,-1,-1,-1,-1,-1,-1,-1,-1,-1,-1,-1,-1,-1,-1,-1,-1,-1,-1,-1,-1,-1,-1,-1,-1,-1,-1,-1,-1,-1],"split_conditions":[3.8355E0,2.1666667E0,6.4963E0,3.782E1,3.445E1,2.526777E0,8.1888E0,3.398E1,3.7E1,3.371831E0,3.684E1,3.791E1,5.5951E0,2.5964286E0,1.37E2,1.5068965E0,3.412E1,6.338569E0,1.418919E0,3.401E1,1.344E3,3.533E1,3.791E1,2.0660264E0,4.63E2,3.0268817E0,2.9470086E0,3.759E1,3.397E1,2.1201718E0,3.799E1,-4.9695194E-2,7.676609E-3,6.755753E-2,1.8521225E-2,1.4989118E-1,-1.01444125E-2,-6.847719E-2,-1.9078977E-2,-1.3667558E-2,3.2158268E-3,-3.244942E-2,-2.0728437E-2,-3.2908607E-2,-5.2302014E-2,-4.443712E-3,-3.4480356E-2,7.896613E-2,4.0450078E-2,-2.9075313E-2,3.7832395E-3,5.9069E-3,-1.211968E-2,3.6004197E-2,1.0586529E-2,8.715864E-2,3.980866E-2,2.0997824E-2,4.8788264E-2,-1.1186353E-1,3.0598262E-2,8.1108026E-2,-1.4974415E-2],"split_indices":[0,5,0,6,6,5,0,6,4,5,6,6,0,5,4,5,6,2,5,6,4,6,6,5,4,5,5,6,6,5,6,0,0,0,0,0,0,0,0,0,0,0,0,0,0,0,0,0,0,0,0,0,0,0,0,0,0,0,0,0,0,0,0],"split_type":[0,0,0,0,0,0,0,0,0,0,0,0,0,0,0,0,0,0,0,0,0,0,0,0,0,0,0,0,0,0,0,0,0,0,0,0,0,0,0,0,0,0,0,0,0,0,0,0,0,0,0,0,0,0,0,0,0,0,0,0,0,0,0],"sum_hessian":[1.3203E4,7.566E3,5.637E3,1.171E3,6.395E3,4.567E3,1.07E3,8.86E2,2.85E2,3.177E3,3.218E3,1.282E3,3.285E3,6.93E2,3.77E2,3.33E2,5.53E2,3E0,2.82E2,1.798E3,1.379E3,8.81E2,2.337E3,1.109E3,1.73E2,2.651E3,6.34E2,2.08E2,4.85E2,1.4E1,3.63E2,3.8E1,2.95E2,1.54E2,3.99E2,1E0,2E0,8E0,2.74E2,9.82E2,8.16E2,5.74E2,8.05E2,2.16E2,6.65E2,1.001E3,1.336E3,3.01E2,8.08E2,2.9E1,1.44E2,1.37E3,1.281E3,2.67E2,3.67E2,1.5E2,5.8E1,1.72E2,3.13E2,2E0,1.2E1,3.58E2,5E0],"tree_param":{"num_deleted":"0","num_feature":"8","num_nodes":"63","size_leaf_vector":"1"}},{"base_weights":[4.4383225E-3,-9.367163E-2,3.3420423E-1,6.304342E-2,-1.779508E-1,2.2264338E-1,5.54077E-1,1.5478876E-1,-2.2199346E-1,-2.2804123E-1,-6.2452234E-2,5.219719E-1,1.2363518E-1,3.7288743E-1,6.762301E-1,-1.019842E-1,2.6736718E-1,-1.6570662E-1,-4.1930377E-1,-1.6786814E-1,-3.0192742E-1,2.0649416E-2,-1.3468692E-1,5.9986156E-1,1.2445508E-1,2.2620474E-1,2.9885912E-2,2.9356745E-1,6.9335854E-1,7.108894E-1,3.6181438E-1,3.8315553E-2,-1.3090088E-2,1.3501383E-2,4.8250657E-2,-4.0432706E-2,-1.4378454E-2,-2.2021133E-2,-4.5438036E-2,-2.2016259E-2,-8.5419E-3,-4.479916E-2,-2.4060747E-2,-1.9255345E-3,2.5962943E-2,-2.5849676E-2,-8.914114E-3,4.924885E-3,6.822442E-2,-1.9623706E-2,1.9701479E-2,1.8769119E-2,5.4573227E-2,-4.204018E-3,1.3623509E-2,2.0986078E-2,5.200339E-2,7.2186455E-2,-4.297388E-3,7.208098E-2,-1.6445208E-2,4.4271834E-3,6.145835E-2],"categories":[],"categories_nodes":[],"categories_segments":[],"categories_sizes":[],"default_left":[0,0,0,0,0,0,0,0,0,0,0,0,0,0,0,0,0,0,0,0,0,0,0,0,0,0,0,0,0,0,0,0,0,0,0,0,0,0,0,0,0,0,0,0,0,0,0,0,0,0,0,0,0,0,0,0,0,0,0,0,0,0,0],"id":14,"left_children":[1,3,5,7,9,11,13,15,17,19,21,23,25,27,29,31,33,35,37,39,41,43,45,47,49,51,53,55,57,59,61,-1,-1,-1,-1,-1,-1,-1,-1,-1,-1,-1,-1,-1,-1,-1,-1,-1,-1,-1,-1,-1,-1,-1,-1,-1,-1,-1,-1,-1,-1,-1,-1],"loss_changes":[4.3204514E2,1.3594604E2,7.4985016E1,9.417726E1,3.870726E1,6.0185402E1,2.2544708E1,7.8770195E1,9.670456E0,2.0703064E1,1.2164497E1,1.5561386E1,1.46958275E1,1.0396492E1,6.4338074E0,1.1707941E1,5.3865402E1,3.519907E0,1.2547379E0,1.1083649E1,1.8647446E1,8.997862E0,6.089653E0,1.9108734E1,1.993285E0,8.881054E0,6.125152E0,6.260332E0,1.7521858E0,4.9119263E0,5.029483E0,0E0,0E0,0E0,0E0,0E0,0E0,0E0,0E0,0E0,0E0,0E0,0E0,0E0,0E0,0E0,0E0,0E0,0E0,0E0,0E0,0E0,0E0,0E0,0E0,0E0,0E0,0E0,0E0,0E0,0E0,0E0,0E0],"parents":[2147483647,0,0,1,1,2,2,3,3,4,4,5,5,6,6,7,7,8,8,9,9,10,10,11,11,12,12,13,13,14,14,15,15,16,16,17,17,18,18,19,19,20,20,21,21,22,22,23,23,24,24,25,25,26,26,27,27,28,28,29,29,30,30],"right_children":[2,4,6,8,10,12,14,16,18,20,22,24,26,28,30,32,34,36,38,40,42,44,46,48,50,52,54,56,58,60,62,-1,-1,-1,-1,-1,-1,-1,-1,-1,-1,-1,-1,-1,-1,-1,-1,-1,-1,-1,-1,-1,-1,-1,-1,-1,-1,-1,-1,-1,-1,-1,-1],"split_conditions":[4.8929E0,2.567347E0,6.5778E0,3.793E1,3.725E0,2.5199203E0,2.2E1,2.2E1,3.939E1,3.469E1,3.0068493E0,3.781E1,2.972441E0,9.3125E0,3.186747E0,3.3562992E0,3.5625E0,1.6607E0,1.6E1,3.404E1,3.681E1,4.1E1,1.8E1,1.2E1,9.679054E-1,1.1052631E0,5.6874E0,1.060606E0,3.787E1,3.809E1,3.408E1,3.8315553E-2,-1.3090088E-2,1.3501383E-2,4.8250657E-2,-4.0432706E-2,-1.4378454E-2,-2.2021133E-2,-4.5438036E-2,-2.2016259E-2,-8.5419E-3,-4.479916E-2,-2.4060747E-2,-1.9255345E-3,2.5962943E-2,-2.5849676E-2,-8.914114E-3,4.924885E-3,6.822442E-2,-1.9623706E-2,1.9701479E-2,1.8769119E-2,5.4573227E-2,-4.204018E-3,1.3623509E-2,2.0986078E-2,5.200339E-2,7.2186455E-2,-4.297388E-3,7.208098E-2,-1.6445208E-2,4.4271834E-3,6.145835E-2],"split_indices":[0,5,0,6,0,5,1,1,6,6,5,6,5,0,5,2,0,0,1,6,6,1,1,1,3,3,0,3,6,6,6,0,0,0,0,0,0,0,0,0,0,0,0,0,0,0,0,0,0,0,0,0,0,0,0,0,0,0,0,0,0,0,0],"split_type":[0,0,0,0,0,0,0,0,0,0,0,0,0,0,0,0,0,0,0,0,0,0,0,0,0,0,0,0,0,0,0,0,0,0,0,0,0,0,0,0,0,0,0,0,0,0,0,0,0,0,0,0,0,0,0,0,0,0,0,0,0,0,0],"sum_hessian":[1.3352E4,1.0291E4,3.061E3,3.599E3,6.692E3,2.032E3,1.029E3,2.723E3,8.76E2,4.667E3,2.025E3,5.04E2,1.528E3,4.16E2,6.13E2,8.3E2,1.893E3,6.83E2,1.93E2,2.574E3,2.093E3,9.42E2,1.083E3,4.21E2,8.3E1,7.29E2,7.99E2,3.35E2,8.1E1,5.51E2,6.2E1,4.6E1,7.84E2,1.173E3,7.2E2,5.6E1,6.27E2,3E1,1.63E2,1.574E3,1E3,6.17E2,1.476E3,8.08E2,1.34E2,2.9E2,7.93E2,5.5E1,3.66E2,1.5E1,6.8E1,6.52E2,7.7E1,4.77E2,3.22E2,2.46E2,8.9E1,7.8E1,3E0,5.45E2,6E0,2.8E1,3.4E1],"tree_param":{"num_deleted":"0","num_feature":"8","num_nodes":"63","size_leaf_vector":"1"}},{"base_weights":[2.1098168E-3,-4.1977983E-2,2.453638E-1,1.5416229E-1,-1.1711098E-1,3.2153702E-1,-1.14307106E-1,2.4073862E-1,-1.9435737E-1,-8.668533E-2,-2.8649488E-1,3.6127028E-1,-1.4505565E-1,-5.7890646E-2,-4.654407E-1,-7.742238E-2,3.240789E-1,-1.2808079E-1,-3.4607312E-1,1.6797686E-2,-1.6852482E-1,-2.392677E-1,-4.7272485E-1,2.6798335E-1,5.368607E-1,1.1884167E-1,-2.4908769E-1,-6.92086E-2,1.7027019E-1,-4.9327406E-1,-2.2797272E-1,8.061023E-2,-1.0005809E-2,5.2307833E-2,2.431105E-2,-1.7118074E-2,-3.1275784E-3,-2.5214968E-2,-4.4450007E-2,-3.2304407E-3,1.5744373E-2,-1.9451024E-2,-5.0237123E-3,-3.90593E-2,-1.9543655E-2,2.8923118E-2,-4.769807E-2,1.9859742E-2,4.4792525E-2,3.6306065E-2,6.807451E-2,-1.2107057E-2,4.562879E-2,-2.7577654E-2,1.1298317E-1,6.4233676E-2,-7.837353E-3,-6.7604914E-2,-4.3218125E-2,-4.184766E-2,1.6552469E-2],"categories":[],"categories_nodes":[],"categories_segments":[],"categories_sizes":[],"default_left":[0,0,0,0,0,0,0,0,0,0,0,0,0,0,0,0,0,0,0,0,0,0,0,0,0,0,0,0,0,0,0,0,0,0,0,0,0,0,0,0,0,0,0,0,0,0,0,0,0,0,0,0,0,0,0,0,0,0,0,0,0],"id":15,"left_children":[1,3,5,7,9,11,13,15,17,19,21,23,25,27,29,31,33,35,37,39,41,43,45,47,49,51,53,55,-1,57,59,-1,-1,-1,-1,-1,-1,-1,-1,-1,-1,-1,-1,-1,-1,-1,-1,-1,-1,-1,-1,-1,-1,-1,-1,-1,-1,-1,-1,-1,-1],"loss_changes":[1.4168137E2,1.6483226E2,5.5571083E1,9.352445E1,4.165245E1,3.1068558E1,7.0055037E0,6.583687E1,6.159733E0,5.8074738E1,1.0713676E1,2.5114563E1,3.6535E0,6.2352185E0,2.1141434E-1,1.0400249E1,3.1566452E1,1.7929039E0,1.6166592E0,2.0923405E1,1.1759644E1,6.450302E0,9.4215775E-1,1.2508842E1,1.3106644E1,3.131627E0,3.8077478E0,2.045848E0,0E0,1.8797302E-1,5.9400773E-1,0E0,0E0,0E0,0E0,0E0,0E0,0E0,0E0,0E0,0E0,0E0,0E0,0E0,0E0,0E0,0E0,0E0,0E0,0E0,0E0,0E0,0E0,0E0,0E0,0E0,0E0,0E0,0E0,0E0,0E0],"parents":[2147483647,0,0,1,1,2,2,3,3,4,4,5,5,6,6,7,7,8,8,9,9,10,10,11,11,12,12,13,13,14,14,15,15,16,16,17,17,18,18,19,19,20,20,21,21,22,22,23,23,24,24,25,25,26,26,27,27,29,29,30,30],"right_children":[2,4,6,8,10,12,14,16,18,20,22,24,26,28,30,32,34,36,38,40,42,44,46,48,50,52,54,56,-1,58,60,-1,-1,-1,-1,-1,-1,-1,-1,-1,-1,-1,-1,-1,-1,-1,-1,-1,-1,-1,-1,-1,-1,-1,-1,-1,-1,-1,-1,-1,-1],"split_conditions":[6.5165396E0,2.4479167E0,3.799E1,3.793E1,3.793E1,1.5897436E0,3.939E1,1.8E1,3.887E1,3.0268817E0,3.939E1,2.8E1,2.97E2,2.5636364E1,2.8630137E0,1.418919E0,1.9457142E0,1.257E3,2.6E1,3.697E1,3.684E1,4.85545E0,1.01E2,7.677778E0,7.0103245E0,1.37E2,3.781E1,1.8380188E0,1.7027019E-1,1.68E2,1.4557523E0,8.061023E-2,-1.0005809E-2,5.2307833E-2,2.431105E-2,-1.7118074E-2,-3.1275784E-3,-2.5214968E-2,-4.4450007E-2,-3.2304407E-3,1.5744373E-2,-1.9451024E-2,-5.0237123E-3,-3.90593E-2,-1.9543655E-2,2.8923118E-2,-4.769807E-2,1.9859742E-2,4.4792525E-2,3.6306065E-2,6.807451E-2,-1.2107057E-2,4.562879E-2,-2.7577654E-2,1.1298317E-1,6.4233676E-2,-7.837353E-3,-6.7604914E-2,-4.3218125E-2,-4.184766E-2,1.6552469E-2],"split_indices":[2,5,6,6,6,3,6,1,6,5,6,1,4,3,5,5,5,4,1,6,6,2,4,2,2,4,6,5,0,4,3,0,0,0,0,0,0,0,0,0,0,0,0,0,0,0,0,0,0,0,0,0,0,0,0,0,0,0,0,0,0],"split_type":[0,0,0,0,0,0,0,0,0,0,0,0,0,0,0,0,0,0,0,0,0,0,0,0,0,0,0,0,0,0,0,0,0,0,0,0,0,0,0,0,0,0,0,0,0,0,0,0,0,0,0,0,0,0,0,0,0,0,0,0,0],"sum_hessian":[1.3209E4,1.1183E4,2.026E3,3.097E3,8.086E3,1.672E3,3.54E2,2.481E3,6.16E2,6.856E3,1.23E3,1.541E3,1.31E2,3.06E2,4.8E1,5.15E2,1.966E3,4.3E2,1.86E2,3.028E3,3.828E3,9.83E2,2.47E2,1.008E3,5.33E2,3.7E1,9.4E1,3.05E2,1E0,4.2E1,6E0,1.2E1,5.03E2,5.67E2,1.399E3,2.97E2,1.33E2,9.7E1,8.9E1,2.245E3,7.83E2,3.138E3,6.9E2,2.19E2,7.64E2,1E0,2.46E2,7.29E2,2.79E2,2.43E2,2.9E2,2.2E1,1.5E1,9.3E1,1E0,3E0,3.02E2,8E0,3.4E1,4E0,2E0],"tree_param":{"num_deleted":"0","num_feature":"8","num_nodes":"61","size_leaf_vector":"1"}},{"base_weights":[-8.698127E-4,-1.0336629E-1,2.263813E-1,-6.4111136E-2,-2.8235075E-1,1.4081155E-1,4.2871305E-1,7.056813E-2,-1.5973601E-1,-1.3869151E-1,-4.3084055E-1,8.89689E-2,4.211401E-1,3.4398416E-1,6.381E-1,3.1533086E-1,-4.827001E-2,2.6496774E-2,-3.3233166E-1,2.0299497E-1,-3.002344E-1,9.1715676E-1,-4.38727E-1,1.358916E-1,-1.2419836E-1,1.9709473E-2,4.9378842E-1,2.677283E-1,5.6806856E-1,6.9573194E-1,4.4432348E-1,4.76019E-2,1.2569043E-2,6.0625803E-2,-6.7943386E-3,2.213688E-2,-1.8203279E-2,-2.2156328E-2,-5.3218137E-2,1.3229052E-2,1.2391436E-1,-2.412589E-2,-6.607385E-2,-1.5706373E-2,1.22497775E-1,-4.6847086E-2,-1.6517637E-2,1.8356433E-2,-9.372052E-3,9.1380096E-4,-4.1605867E-2,-1.5905887E-2,2.9354265E-2,5.3704508E-2,1.1159922E-2,1.7428907E-2,4.4874452E-2,8.002682E-2,4.7999546E-2,7.967998E-2,5.093464E-2,7.2027646E-2,2.1763017E-2],"categories":[],"categories_nodes":[],"categories_segments":[],"categories_sizes":[],"default_left":[0,0,0,0,0,0,0,0,0,0,0,0,0,0,0,0,0,0,0,0,0,0,0,0,0,0,0,0,0,0,0,0,0,0,0,0,0,0,0,0,0,0,0,0,0,0,0,0,0,0,0,0,0,0,0,0,0,0,0,0,0,0,0],"id":16,"left_children":[1,3,5,7,9,11,13,15,17,19,21,23,25,27,29,31,33,35,37,39,41,43,45,47,49,51,53,55,57,59,61,-1,-1,-1,-1,-1,-1,-1,-1,-1,-1,-1,-1,-1,-1,-1,-1,-1,-1,-1,-1,-1,-1,-1,-1,-1,-1,-1,-1,-1,-1,-1,-1],"loss_changes":[3.074603E2,6.3897987E1,7.097685E1,9.6112045E1,3.483931E1,4.189016E1,2.1406952E1,9.015628E1,1.4028072E2,4.604007E1,8.9496155E0,2.438268E1,1.3113731E1,1.4714256E1,3.5995636E0,3.080928E1,2.6915028E1,8.5377106E1,5.002246E1,1.9469837E1,1.1874268E1,1.8457375E0,6.431778E0,2.1876835E1,1.7126663E1,3.4733799E0,6.2388535E0,1.0932816E1,4.11499E0,4.642624E0,5.0354557E0,0E0,0E0,0E0,0E0,0E0,0E0,0E0,0E0,0E0,0E0,0E0,0E0,0E0,0E0,0E0,0E0,0E0,0E0,0E0,0E0,0E0,0E0,0E0,0E0,0E0,0E0,0E0,0E0,0E0,0E0,0E0,0E0],"parents":[2147483647,0,0,1,1,2,2,3,3,4,4,5,5,6,6,7,7,8,8,9,9,10,10,11,11,12,12,13,13,14,14,15,15,16,16,17,17,18,18,19,19,20,20,21,21,22,22,23,23,24,24,25,25,26,26,27,27,28,28,29,29,30,30],"right_children":[2,4,6,8,10,12,14,16,18,20,22,24,26,28,30,32,34,36,38,40,42,44,46,48,50,52,54,56,58,60,62,-1,-1,-1,-1,-1,-1,-1,-1,-1,-1,-1,-1,-1,-1,-1,-1,-1,-1,-1,-1,-1,-1,-1,-1,-1,-1,-1,-1,-1,-1,-1,-1],"split_conditions":[4.4063E0,-1.1779E2,6.2715E0,3.463E1,3.359E1,3.9E1,3.4E1,-1.183E2,-1.2171E2,-1.1715E2,8.181818E-1,-1.1774E2,9.679054E-1,8.4471E0,3.761E1,3.417E1,3.37E1,3.782E1,-1.2007E2,1.2341137E0,-1.1639E2,2.659864E0,7.1392407E0,3.796E1,3.386E1,5.388235E0,3.789E1,1.0393939E0,-1.2196E2,-1.1835E2,-1.2241E2,4.76019E-2,1.2569043E-2,6.0625803E-2,-6.7943386E-3,2.213688E-2,-1.8203279E-2,-2.2156328E-2,-5.3218137E-2,1.3229052E-2,1.2391436E-1,-2.412589E-2,-6.607385E-2,-1.5706373E-2,1.22497775E-1,-4.6847086E-2,-1.6517637E-2,1.8356433E-2,-9.372052E-3,9.1380096E-4,-4.1605867E-2,-1.5905887E-2,2.9354265E-2,5.3704508E-2,1.1159922E-2,1.7428907E-2,4.4874452E-2,8.002682E-2,4.7999546E-2,7.967998E-2,5.093464E-2,7.2027646E-2,2.1763017E-2],"split_indices":[0,7,0,6,6,1,1,7,7,7,3,7,3,0,6,6,6,6,7,3,7,2,2,6,6,2,6,3,7,7,7,0,0,0,0,0,0,0,0,0,0,0,0,0,0,0,0,0,0,0,0,0,0,0,0,0,0,0,0,0,0,0,0],"split_type":[0,0,0,0,0,0,0,0,0,0,0,0,0,0,0,0,0,0,0,0,0,0,0,0,0,0,0,0,0,0,0,0,0,0,0,0,0,0,0,0,0,0,0,0,0,0,0,0,0,0,0,0,0,0,0,0,0,0,0,0,0,0,0],"sum_hessian":[1.3198E4,9.096E3,4.102E3,7.461E3,1.635E3,2.884E3,1.218E3,3.098E3,4.363E3,8.32E2,8.03E2,2.435E3,4.49E2,8.69E2,3.49E2,1.012E3,2.086E3,2.099E3,2.264E3,2.67E2,5.65E2,4E0,7.99E2,1.996E3,4.39E2,6.9E1,3.8E2,6.5E2,2.19E2,2.67E2,8.2E1,5.47E2,4.65E2,6E1,2.026E3,1.085E3,1.014E3,1.458E3,8.06E2,2.51E2,1.6E1,4.87E2,7.8E1,1E0,3E0,7.2E2,7.9E1,1.653E3,3.43E2,3.02E2,1.37E2,4.2E1,2.7E1,3.41E2,3.9E1,4.3E2,2.2E2,5.8E1,1.61E2,1.71E2,9.6E1,3.6E1,4.6E1],"tree_param":{"num_deleted":"0","num_feature":"8","num_nodes":"63","size_leaf_vector":"1"}},{"base_weights":[-3.2263648E-4,-1.1834227E-1,1.6571379E-1,6.391336E-2,-1.4954838E-1,4.4772282E-1,1.0259587E-1,-8.016345E-2,2.1201408E-1,-2.3888268E-1,-1.1370693E-1,7.2597235E-2,5.5058753E-1,3.645392E-2,4.313195E-1,-2.4060908E-1,2.200047E-2,3.1650397E-1,-1.4066298E-1,5.7689793E-2,-2.677281E-1,-1.2846868E-1,1.9071695E-1,-2.728492E-2,4.3445364E-1,8.067411E-1,3.4882346E-1,1.0606259E-1,-5.80945E-2,3.1626013E-1,5.320329E-1,-3.8159046E-2,-6.338607E-3,-1.5167817E-2,1.1993463E-2,2.1071395E-2,7.497496E-2,-3.6907585E-3,-2.6925469E-2,-4.187409E-2,1.141008E-2,-2.0744296E-2,-3.2351788E-2,-5.0928635E-3,-1.684789E-2,3.8556747E-2,-1.5021979E-2,-9.554631E-3,3.4031462E-2,9.929841E-3,7.254183E-2,1.0680417E-1,6.261188E-2,2.0587191E-2,4.8828766E-2,1.5052997E-2,-1.0561935E-2,-1.1719028E-2,1.1376123E-3,2.2705773E-2,4.5035336E-2,4.5722637E-2,6.432426E-2],"categories":[],"categories_nodes":[],"categories_segments":[],"categories_sizes":[],"default_left":[0,0,0,0,0,0,0,0,0,0,0,0,0,0,0,0,0,0,0,0,0,0,0,0,0,0,0,0,0,0,0,0,0,0,0,0,0,0,0,0,0,0,0,0,0,0,0,0,0,0,0,0,0,0,0,0,0,0,0,0,0,0,0],"id":17,"left_children":[1,3,5,7,9,11,13,15,17,19,21,23,25,27,29,31,33,35,37,39,41,43,45,47,49,51,53,55,57,59,61,-1,-1,-1,-1,-1,-1,-1,-1,-1,-1,-1,-1,-1,-1,-1,-1,-1,-1,-1,-1,-1,-1,-1,-1,-1,-1,-1,-1,-1,-1,-1,-1],"loss_changes":[2.5873978E2,4.3905594E1,9.760391E1,2.4107462E1,2.1073166E1,3.8662964E1,9.747728E1,9.397768E0,2.0570631E1,1.614972E1,2.1167961E1,7.8548846E0,4.0392776E1,2.4581072E1,8.534348E0,5.5474997E0,5.9883747E0,1.9550236E1,1.697849E0,4.562935E0,5.7144012E0,1.3914963E1,1.454003E1,4.323394E0,4.5113277E0,1.5661346E1,8.71146E0,2.0263128E1,6.504319E0,4.1201324E0,3.0252533E0,0E0,0E0,0E0,0E0,0E0,0E0,0E0,0E0,0E0,0E0,0E0,0E0,0E0,0E0,0E0,0E0,0E0,0E0,0E0,0E0,0E0,0E0,0E0,0E0,0E0,0E0,0E0,0E0,0E0,0E0,0E0,0E0],"parents":[2147483647,0,0,1,1,2,2,3,3,4,4,5,5,6,6,7,7,8,8,9,9,10,10,11,11,12,12,13,13,14,14,15,15,16,16,17,17,18,18,19,19,20,20,21,21,22,22,23,23,24,24,25,25,26,26,27,27,28,28,29,29,30,30],"right_children":[2,4,6,8,10,12,14,16,18,20,22,24,26,28,30,32,34,36,38,40,42,44,46,48,50,52,54,56,58,60,62,-1,-1,-1,-1,-1,-1,-1,-1,-1,-1,-1,-1,-1,-1,-1,-1,-1,-1,-1,-1,-1,-1,-1,-1,-1,-1,-1,-1,-1,-1,-1,-1],"split_conditions":[3.8929E0,2.1448693E0,2.3885417E0,2.8E1,2.2202E0,1.7E1,6.8233E0,2.35E0,3.782E1,3.047619E0,5.2E1,5.6392E0,3.415E1,3.0268817E0,8.0073E0,3.684E1,3.392E1,3.4286E0,3.846E1,3.33E2,3.533E1,4.5857544E0,2.8037975E0,2.362E3,8.78E2,2.0660264E0,9.48E2,3.793E1,4.9643E0,2.7E1,3.692E1,-3.8159046E-2,-6.338607E-3,-1.5167817E-2,1.1993463E-2,2.1071395E-2,7.497496E-2,-3.6907585E-3,-2.6925469E-2,-4.187409E-2,1.141008E-2,-2.0744296E-2,-3.2351788E-2,-5.0928635E-3,-1.684789E-2,3.8556747E-2,-1.5021979E-2,-9.554631E-3,3.4031462E-2,9.929841E-3,7.254183E-2,1.0680417E-1,6.261188E-2,2.0587191E-2,4.8828766E-2,1.5052997E-2,-1.0561935E-2,-1.1719028E-2,1.1376123E-3,2.2705773E-2,4.5035336E-2,4.5722637E-2,6.432426E-2],"split_indices":[0,5,5,1,0,1,0,0,6,2,1,0,6,5,0,6,6,0,6,4,6,2,5,4,4,5,4,6,0,1,6,0,0,0,0,0,0,0,0,0,0,0,0,0,0,0,0,0,0,0,0,0,0,0,0,0,0,0,0,0,0,0,0],"split_type":[0,0,0,0,0,0,0,0,0,0,0,0,0,0,0,0,0,0,0,0,0,0,0,0,0,0,0,0,0,0,0,0,0,0,0,0,0,0,0,0,0,0,0,0,0,0,0,0,0,0,0,0,0,0,0,0,0,0,0,0,0,0,0],"sum_hessian":[1.3202E4,7.717E3,5.485E3,1.128E3,6.589E3,1.002E3,4.483E3,5.72E2,5.56E2,1.885E3,4.704E3,2.16E2,7.86E2,3.733E3,7.5E2,2.22E2,3.5E2,4.29E2,1.27E2,1.67E2,1.718E3,4.487E3,2.17E2,1.7E2,4.6E1,3.45E2,4.41E2,2.15E3,1.583E3,3.52E2,3.98E2,1.23E2,9.9E1,1.26E2,2.24E2,3.46E2,8.3E1,7.1E1,5.6E1,1.7E1,1.5E2,8.28E2,8.9E2,1.528E3,2.959E3,1.38E2,7.9E1,1.44E2,2.6E1,2.2E1,2.4E1,1.39E2,2.06E2,2.19E2,2.22E2,1.777E3,3.73E2,8.55E2,7.28E2,2.13E2,1.39E2,2.41E2,1.57E2],"tree_param":{"num_deleted":"0","num_feature":"8","num_nodes":"63","size_leaf_vector":"1"}},{"base_weights":[-2.744009E-3,-5.9283875E-2,2.818137E-1,5.7922624E-2,-1.1972266E-1,3.9985472E-1,1.6034852E-1,-6.8278305E-2,1.9321539E-1,-8.793615E-2,-2.7222782E-1,4.7448E-1,1.550042E-1,1.09566286E-1,5.1879627E-1,-4.1304197E-2,-3.018484E-1,5.4005957E-1,1.4320044E-1,-4.3176534E-3,-1.5909404E-1,-1.5832968E-1,-3.7434158E-1,5.8474356E-1,2.3111425E-1,5.25743E-1,-3.0191697E-2,1.3460454E-1,-1.6409431E-1,5.341123E-1,-1.1250192E-1,1.2205919E-2,-1.2543382E-2,-2.5047792E-2,-5.9789147E-2,6.719541E-2,1.7828183E-3,1.7070832E-2,-3.32403E-2,8.475771E-2,-1.647264E-3,-1.5673073E-3,-2.901114E-2,-1.0398992E-2,-5.5160332E-2,5.097006E-2,-3.9565787E-2,7.645479E-2,4.8049938E-2,4.6148844E-2,-9.84635E-5,-5.4350037E-2,5.572958E-2,-1.1028667E-2,2.3427203E-2,2.030036E-2,-2.8936038E-4,6.6145346E-3,-3.2715928E-2,2.3799552E-2,5.675109E-2,-1.0260948E-1,5.3406067E-2],"categories":[],"categories_nodes":[],"categories_segments":[],"categories_sizes":[],"default_left":[0,0,0,0,0,0,0,0,0,0,0,0,0,0,0,0,0,0,0,0,0,0,0,0,0,0,0,0,0,0,0,0,0,0,0,0,0,0,0,0,0,0,0,0,0,0,0,0,0,0,0,0,0,0,0,0,0,0,0,0,0,0,0],"id":18,"left_children":[1,3,5,7,9,11,13,15,17,19,21,23,25,27,29,31,33,35,37,39,41,43,45,47,49,51,53,55,57,59,61,-1,-1,-1,-1,-1,-1,-1,-1,-1,-1,-1,-1,-1,-1,-1,-1,-1,-1,-1,-1,-1,-1,-1,-1,-1,-1,-1,-1,-1,-1,-1,-1],"loss_changes":[2.1275966E2,7.815561E1,3.1364502E1,6.410926E1,3.5261787E1,2.0226685E1,1.9638565E1,1.2229101E1,3.1356125E1,3.584876E1,1.4537094E1,2.2700912E1,1.7935953E1,6.524621E0,1.3557281E0,2.3970577E1,2.9070263E0,1.5692551E1,2.0793041E1,2.8707024E1,6.1158974E1,1.2658023E1,1.265789E1,1.059761E1,1.4276834E1,3.2380638E0,3.7327247E0,8.182714E0,3.0251617E0,1.160511E0,2.9107766E0,0E0,0E0,0E0,0E0,0E0,0E0,0E0,0E0,0E0,0E0,0E0,0E0,0E0,0E0,0E0,0E0,0E0,0E0,0E0,0E0,0E0,0E0,0E0,0E0,0E0,0E0,0E0,0E0,0E0,0E0,0E0,0E0],"parents":[2147483647,0,0,1,1,2,2,3,3,4,4,5,5,6,6,7,7,8,8,9,9,10,10,11,11,12,12,13,13,14,14,15,15,16,16,17,17,18,18,19,19,20,20,21,21,22,22,23,23,24,24,25,25,26,26,27,27,28,28,29,29,30,30],"right_children":[2,4,6,8,10,12,14,16,18,20,22,24,26,28,30,32,34,36,38,40,42,44,46,48,50,52,54,56,58,60,62,-1,-1,-1,-1,-1,-1,-1,-1,-1,-1,-1,-1,-1,-1,-1,-1,-1,-1,-1,-1,-1,-1,-1,-1,-1,-1,-1,-1,-1,-1,-1,-1],"split_conditions":[5.3638E0,2.5544715E0,2.8630137E0,3.1944E0,-1.1776E2,3.767E1,8.7603E0,-1.1713E2,1.8380188E0,3.453E1,3.365E1,-1.1813E2,-1.2239E2,3.796E1,5.030303E0,3.463E1,-1.1614E2,-1.1806E2,-1.1716E2,-1.1932E2,-1.2157E2,-1.1639E2,1.37E2,3.414E1,3.364E1,6.9E1,7.5196E0,-1.179E2,-1.2204E2,9.494681E-1,1.1001565E0,1.2205919E-2,-1.2543382E-2,-2.5047792E-2,-5.9789147E-2,6.719541E-2,1.7828183E-3,1.7070832E-2,-3.32403E-2,8.475771E-2,-1.647264E-3,-1.5673073E-3,-2.901114E-2,-1.0398992E-2,-5.5160332E-2,5.097006E-2,-3.9565787E-2,7.645479E-2,4.8049938E-2,4.6148844E-2,-9.84635E-5,-5.4350037E-2,5.572958E-2,-1.1028667E-2,2.3427203E-2,2.030036E-2,-2.8936038E-4,6.6145346E-3,-3.2715928E-2,2.3799552E-2,5.675109E-2,-1.0260948E-1,5.3406067E-2],"split_indices":[0,5,5,0,7,6,0,7,5,6,6,7,7,6,5,6,7,7,7,7,7,7,4,6,6,4,0,7,7,3,3,0,0,0,0,0,0,0,0,0,0,0,0,0,0,0,0,0,0,0,0,0,0,0,0,0,0,0,0,0,0,0,0],"split_type":[0,0,0,0,0,0,0,0,0,0,0,0,0,0,0,0,0,0,0,0,0,0,0,0,0,0,0,0,0,0,0,0,0,0,0,0,0,0,0,0,0,0,0,0,0,0,0,0,0,0,0,0,0,0,0,0,0,0,0,0,0,0,0],"sum_hessian":[1.3222E4,1.1031E4,2.191E3,3.753E3,7.278E3,1.11E3,1.081E3,1.942E3,1.811E3,6.024E3,1.254E3,8.5E2,2.6E2,9.48E2,1.33E2,1.742E3,2E2,2.27E2,1.584E3,2.77E3,3.254E3,5.94E2,6.6E2,5.84E2,2.66E2,8.6E1,1.74E2,8.69E2,7.9E1,1.3E2,3E0,5.92E2,1.15E3,1.72E2,2.8E1,1.81E2,4.6E1,1.498E3,8.6E1,3.8E1,2.732E3,1.554E3,1.7E3,5.23E2,7.1E1,1.5E1,6.45E2,2.12E2,3.72E2,1.33E2,1.33E2,2E0,8.4E1,1.34E2,4E1,5.8E2,2.89E2,3.3E1,4.6E1,1.4E1,1.16E2,1E0,2E0],"tree_param":{"num_deleted":"0","num_feature":"8","num_nodes":"63","size_leaf_vector":"1"}},{"base_weights":[2.3455452E-3,-7.424795E-2,1.7207766E-1,1.4582078E-1,-1.0286404E-1,1.2831752E-1,4.0295684E-1,-2.638229E-2,3.0636E-1,-9.095788E-2,-3.418999E-1,4.4095027E-1,8.493404E-2,3.414906E-1,5.014121E-1,-2.513521E-1,2.006026E-2,-4.1585058E-1,3.6141902E-1,-2.5755797E-2,-1.379122E-1,-2.9671344E-1,-4.0171158E-1,5.9746917E-2,5.784826E-1,6.948317E-2,4.3073684E-1,2.7781346E-1,4.7204658E-1,5.315647E-1,2.870276E-1,2.4975134E-2,-7.0341714E-2,-1.4326975E-2,1.4939352E-2,-6.4401515E-2,-1.4178184E-2,2.4068875E-2,6.574615E-2,-4.827919E-3,2.178882E-2,1.10703735E-2,-1.4461224E-2,-2.2004599E-2,-3.5027955E-2,3.6535007E-3,-4.07418E-2,-6.0349375E-2,1.7536903E-2,8.221747E-2,3.857935E-2,2.6806635E-3,1.6484803E-2,8.282641E-3,5.6826223E-2,-1.608569E-2,2.9662943E-2,-8.263086E-2,4.983775E-2,7.870725E-3,5.4182567E-2,4.3372717E-2,-1.5236327E-2],"categories":[],"categories_nodes":[],"categories_segments":[],"categories_sizes":[],"default_left":[0,0,0,0,0,0,0,0,0,0,0,0,0,0,0,0,0,0,0,0,0,0,0,0,0,0,0,0,0,0,0,0,0,0,0,0,0,0,0,0,0,0,0,0,0,0,0,0,0,0,0,0,0,0,0,0,0,0,0,0,0,0,0],"id":19,"left_children":[1,3,5,7,9,11,13,15,17,19,21,23,25,27,29,31,33,35,37,39,41,43,45,47,49,51,53,55,57,59,61,-1,-1,-1,-1,-1,-1,-1,-1,-1,-1,-1,-1,-1,-1,-1,-1,-1,-1,-1,-1,-1,-1,-1,-1,-1,-1,-1,-1,-1,-1,-1,-1],"loss_changes":[1.7225475E2,5.751123E1,4.15739E1,2.9063343E1,2.296457E1,4.6958687E1,3.7986755E0,5.312713E0,2.1782024E1,2.3564034E1,9.159317E-1,2.2089958E1,1.6234028E1,3.2524223E0,1.4634857E0,1.9883905E1,8.935733E0,2.3474684E0,1.7926842E1,1.7702831E1,7.4701767E0,8.3462715E-1,4.2001915E-1,8.771271E0,1.4239426E1,1.1859165E1,6.1729813E0,2.325821E0,4.9244843E0,9.7034836E-1,2.1932132E0,0E0,0E0,0E0,0E0,0E0,0E0,0E0,0E0,0E0,0E0,0E0,0E0,0E0,0E0,0E0,0E0,0E0,0E0,0E0,0E0,0E0,0E0,0E0,0E0,0E0,0E0,0E0,0E0,0E0,0E0,0E0,0E0],"parents":[2147483647,0,0,1,1,2,2,3,3,4,4,5,5,6,6,7,7,8,8,9,9,10,10,11,11,12,12,13,13,14,14,15,15,16,16,17,17,18,18,19,19,20,20,21,21,22,22,23,23,24,24,25,25,26,26,27,27,28,28,29,29,30,30],"right_children":[2,4,6,8,10,12,14,16,18,20,22,24,26,28,30,32,34,36,38,40,42,44,46,48,50,52,54,56,58,60,62,-1,-1,-1,-1,-1,-1,-1,-1,-1,-1,-1,-1,-1,-1,-1,-1,-1,-1,-1,-1,-1,-1,-1,-1,-1,-1,-1,-1,-1,-1,-1,-1],"split_conditions":[4.3818E0,2.0660264E0,7.3463E0,2.7E1,3.939E1,2.2776935E0,3.1E1,1.5651302E0,2.71E2,2.7967741E0,2.5E1,1.8E1,4.9E1,9.3125E0,3.784E1,4.076389E0,1.7E1,3.54E1,3.4286E0,5.2E1,2.71E2,2.5851393E0,6.9E1,4.36E2,3.408E1,5.7833E0,5.748996E0,6.04142E0,6.9E1,6.9E1,4.5E1,2.4975134E-2,-7.0341714E-2,-1.4326975E-2,1.4939352E-2,-6.4401515E-2,-1.4178184E-2,2.4068875E-2,6.574615E-2,-4.827919E-3,2.178882E-2,1.10703735E-2,-1.4461224E-2,-2.2004599E-2,-3.5027955E-2,3.6535007E-3,-4.07418E-2,-6.0349375E-2,1.7536903E-2,8.221747E-2,3.857935E-2,2.6806635E-3,1.6484803E-2,8.282641E-3,5.6826223E-2,-1.608569E-2,2.9662943E-2,-8.263086E-2,4.983775E-2,7.870725E-3,5.4182567E-2,4.3372717E-2,-1.5236327E-2],"split_indices":[0,5,0,1,6,5,1,5,4,5,1,1,1,0,6,2,1,6,0,1,4,5,4,4,6,0,2,2,4,4,1,0,0,0,0,0,0,0,0,0,0,0,0,0,0,0,0,0,0,0,0,0,0,0,0,0,0,0,0,0,0,0,0],"split_type":[0,0,0,0,0,0,0,0,0,0,0,0,0,0,0,0,0,0,0,0,0,0,0,0,0,0,0,0,0,0,0,0,0,0,0,0,0,0,0,0,0,0,0,0,0,0,0,0,0,0,0,0,0,0,0,0,0,0,0,0,0,0,0],"sum_hessian":[1.3248E4,9.129E3,4.119E3,1.05E3,8.079E3,3.464E3,6.55E2,5.07E2,5.43E2,7.697E3,3.82E2,4.21E2,3.043E3,4.06E2,2.49E2,8.6E1,4.21E2,3.8E1,5.05E2,3.223E3,4.474E3,2.21E2,1.61E2,1.12E2,3.09E2,2.914E3,1.29E2,2.75E2,1.31E2,2.17E2,3.2E1,4.1E1,4.5E1,1.86E2,2.35E2,2E1,1.8E1,3.6E2,1.45E2,2.951E3,2.72E2,1.17E2,4.357E3,9.3E1,1.28E2,2E0,1.59E2,1.6E1,9.6E1,1.35E2,1.74E2,2.014E3,9E2,3.7E1,9.2E1,1.1E1,2.64E2,2E0,1.29E2,5E0,2.12E2,2.4E1,8E0],"tree_param":{"num_deleted":"0","num_feature":"8","num_nodes":"63","size_leaf_vector":"1"}},{"base_weights":[-1.302703E-3,4.7964465E-2,-1.1229898E-1,9.758087E-2,-1.3401212E-1,-1.5570846E-1,1.740119E-2,-1.2124508E-2,1.4615549E-1,-8.781038E-2,-3.1196877E-1,-1.8881851E-1,-9.316612E-2,-1.1416615E-2,2.713293E-1,-5.5695113E-2,1.4493647E-1,4.256885E-1,1.1677029E-1,-8.9999914E-2,1.6617404E-1,-2.4746376E-1,-3.4948972E-1,2.6363194E-2,-1.9725977E-1,-9.917858E-2,4.3818295E-1,-2.8772286E-1,6.5469192E-3,3.2293782E-1,-3.883397E-1,3.85502E-2,-6.797574E-3,2.3697E-2,-1.9422479E-2,3.3042368E-2,8.230074E-2,6.406858E-3,2.721451E-2,-1.3187865E-2,-1.4501741E-3,1.017793E-4,-2.7267942E-2,1.0491127E-2,-3.517092E-2,-1.2814249E-2,6.1376847E-2,-2.6227385E-2,-1.740389E-2,-1.0465348E-2,2.1900864E-2,1.6940947E-1,1.7000057E-2,-1.0612652E-3,-3.2709345E-2,-9.819332E-4,3.717355E-2,4.061497E-2,-6.483382E-3,-7.370091E-2,4.3844573E-2],"categories":[],"categories_nodes":[],"categories_segments":[],"categories_sizes":[],"default_left":[0,0,0,0,0,0,0,0,0,0,0,0,0,0,0,0,0,0,0,0,0,0,0,0,0,0,0,0,0,0,0,0,0,0,0,0,0,0,0,0,0,0,0,0,0,0,0,0,0,0,0,0,0,0,0,0,0,0,0,0,0],"id":20,"left_children":[1,3,5,7,9,11,13,15,17,19,21,23,25,27,29,31,33,35,37,39,-1,41,43,45,47,49,51,53,55,57,59,-1,-1,-1,-1,-1,-1,-1,-1,-1,-1,-1,-1,-1,-1,-1,-1,-1,-1,-1,-1,-1,-1,-1,-1,-1,-1,-1,-1,-1,-1],"loss_changes":[7.229312E1,8.268282E1,2.2883915E1,3.8343185E1,1.6103989E1,6.2879333E0,7.467102E0,1.5124794E1,4.0914177E1,6.1216135E0,8.9131165E-1,3.619835E0,3.417079E0,4.553355E0,3.666039E0,9.399649E0,1.5028844E1,1.7669205E1,3.6945538E1,4.924122E0,0E0,9.52651E-1,2.9205894E-1,6.9762163E0,2.8454056E0,1.8433533E0,3.753764E0,6.0748863E-1,5.155624E0,3.1562529E0,2.6293368E0,0E0,0E0,0E0,0E0,0E0,0E0,0E0,0E0,0E0,0E0,0E0,0E0,0E0,0E0,0E0,0E0,0E0,0E0,0E0,0E0,0E0,0E0,0E0,0E0,0E0,0E0,0E0,0E0,0E0,0E0],"parents":[2147483647,0,0,1,1,2,2,3,3,4,4,5,5,6,6,7,7,8,8,9,9,10,10,11,11,12,12,13,13,14,14,15,15,16,16,17,17,18,18,19,19,21,21,22,22,23,23,24,24,25,25,26,26,27,27,28,28,29,29,30,30],"right_children":[2,4,6,8,10,12,14,16,18,20,22,24,26,28,30,32,34,36,38,40,-1,42,44,46,48,50,52,54,56,58,60,-1,-1,-1,-1,-1,-1,-1,-1,-1,-1,-1,-1,-1,-1,-1,-1,-1,-1,-1,-1,-1,-1,-1,-1,-1,-1,-1,-1,-1,-1],"split_conditions":[3.145422E0,3.793E1,5.873065E0,2.2E1,3.939E1,1.753E3,8.096666E0,6.489499E0,1.9284818E0,2.5636364E1,4.002E1,2.71E2,6.4104476E0,3.29E1,5.030303E0,1.99E2,1.5092251E0,1.1343284E0,6.0084987E0,5.873065E0,1.6617404E-1,1.4E1,1.6118577E0,5.242009E0,8.83E2,5.2E1,2.4951456E0,3.2220497E0,4.4750957E0,3.75E1,1.37E2,3.85502E-2,-6.797574E-3,2.3697E-2,-1.9422479E-2,3.3042368E-2,8.230074E-2,6.406858E-3,2.721451E-2,-1.3187865E-2,-1.4501741E-3,1.017793E-4,-2.7267942E-2,1.0491127E-2,-3.517092E-2,-1.2814249E-2,6.1376847E-2,-2.6227385E-2,-1.740389E-2,-1.0465348E-2,2.1900864E-2,1.6940947E-1,1.7000057E-2,-1.0612652E-3,-3.2709345E-2,-9.819332E-4,3.717355E-2,4.061497E-2,-6.483382E-3,-7.370091E-2,4.3844573E-2],"split_indices":[5,6,2,1,6,4,2,2,5,3,6,4,5,6,5,4,3,3,2,2,0,1,5,2,4,1,2,5,5,6,4,0,0,0,0,0,0,0,0,0,0,0,0,0,0,0,0,0,0,0,0,0,0,0,0,0,0,0,0,0,0],"split_type":[0,0,0,0,0,0,0,0,0,0,0,0,0,0,0,0,0,0,0,0,0,0,0,0,0,0,0,0,0,0,0,0,0,0,0,0,0,0,0,0,0,0,0,0,0,0,0,0,0,0,0,0,0,0,0,0,0,0,0,0,0],"sum_hessian":[1.3218E4,9.155E3,4.063E3,7.194E3,1.961E3,3.044E3,1.019E3,2.208E3,4.986E3,1.558E3,4.03E2,1.989E3,1.055E3,9.16E2,1.03E2,1.729E3,4.79E2,4.73E2,4.513E3,1.557E3,1E0,1.51E2,2.52E2,7.5E1,1.914E3,1.044E3,1.1E1,5.5E1,8.61E2,9.6E1,7E0,4.6E1,1.683E3,3.77E2,1.02E2,3.83E2,9E1,3.371E3,1.142E3,1.001E3,5.56E2,1.4E1,1.37E2,1E0,2.51E2,6E1,1.5E1,5.01E2,1.413E3,1.027E3,1.7E1,1E0,1E1,7E0,4.8E1,8.25E2,3.6E1,7.9E1,1.7E1,5E0,2E0],"tree_param":{"num_deleted":"0","num_feature":"8","num_nodes":"61","size_leaf_vector":"1"}},{"base_weights":[2.667683E-4,-7.587081E-2,1.3124466E-1,1.6764E-1,-9.668548E-2,2.4237779E-1,4.472818E-2,5.8066905E-1,-1.1163248E-1,-2.95623E-2,-1.7827466E-1,3.9132245E-2,2.9732174E-1,-2.7381228E-2,2.0660052E-1,3.708893E-1,8.328103E-1,1.2010175E-1,-2.6403013E-1,3.2928184E-1,-9.002235E-2,-1.0646015E-1,-4.0762353E-1,-5.1614605E-2,2.3092434E-1,6.7445076E-1,2.4427009E-1,-5.969275E-4,-1.6683327E-1,2.7362823E-1,5.4408167E-2,6.3856445E-2,2.7171299E-2,5.570505E-2,1.01527765E-1,8.439361E-3,3.750139E-2,-1.7666196E-2,-3.2185186E-2,6.694012E-2,1.3017266E-2,-2.5178576E-3,-2.1309633E-2,1.3112112E-2,-1.9515945E-2,-6.842224E-2,-3.5892583E-2,5.06643E-3,-1.4717849E-2,2.9860226E-2,-1.255469E-2,8.8991426E-2,4.856697E-2,2.6138205E-2,-4.446162E-2,3.4595157E-3,-1.696195E-2,-8.334689E-3,-3.250612E-2,1.916143E-2,4.3418564E-2,1.2381182E-2,-2.5325814E-2],"categories":[],"categories_nodes":[],"categories_segments":[],"categories_sizes":[],"default_left":[0,0,0,0,0,0,0,0,0,0,0,0,0,0,0,0,0,0,0,0,0,0,0,0,0,0,0,0,0,0,0,0,0,0,0,0,0,0,0,0,0,0,0,0,0,0,0,0,0,0,0,0,0,0,0,0,0,0,0,0,0,0,0],"id":21,"left_children":[1,3,5,7,9,11,13,15,17,19,21,23,25,27,29,31,33,35,37,39,41,43,45,47,49,51,53,55,57,59,61,-1,-1,-1,-1,-1,-1,-1,-1,-1,-1,-1,-1,-1,-1,-1,-1,-1,-1,-1,-1,-1,-1,-1,-1,-1,-1,-1,-1,-1,-1,-1,-1],"loss_changes":[1.3189413E2,4.240993E1,4.673654E1,7.607892E1,4.219684E1,2.3751984E1,3.1929996E1,1.3760948E1,1.3946116E1,9.17809E1,5.724128E1,7.9135737E0,3.334749E1,7.0704937E0,8.584648E0,3.7289066E0,5.472496E0,1.3974342E0,1.1454659E0,4.122262E1,2.8884336E1,5.5869812E1,1.0920822E1,3.0276752E0,3.5597734E0,7.9469376E0,1.744484E1,9.457647E0,4.001918E0,7.6200485E0,5.5618258E0,0E0,0E0,0E0,0E0,0E0,0E0,0E0,0E0,0E0,0E0,0E0,0E0,0E0,0E0,0E0,0E0,0E0,0E0,0E0,0E0,0E0,0E0,0E0,0E0,0E0,0E0,0E0,0E0,0E0,0E0,0E0,0E0],"parents":[2147483647,0,0,1,1,2,2,3,3,4,4,5,5,6,6,7,7,8,8,9,9,10,10,11,11,12,12,13,13,14,14,15,15,16,16,17,17,18,18,19,19,20,20,21,21,22,22,23,23,24,24,25,25,26,26,27,27,28,28,29,29,30,30],"right_children":[2,4,6,8,10,12,14,16,18,20,22,24,26,28,30,32,34,36,38,40,42,44,46,48,50,52,54,56,58,60,62,-1,-1,-1,-1,-1,-1,-1,-1,-1,-1,-1,-1,-1,-1,-1,-1,-1,-1,-1,-1,-1,-1,-1,-1,-1,-1,-1,-1,-1,-1,-1,-1],"split_conditions":[4.1161E0,-1.2239E2,2.75E0,3.799E1,3.453E1,1.8E1,6.0704E0,3.777E1,3.875E1,-1.1835E2,-1.2007E2,6.322051E0,2.0660264E0,-1.1761E2,-1.1792E2,3.0081E0,3.9711287E0,-1.2249E2,3.955E1,3.416E1,-1.1755E2,3.759E1,2.380841E0,-1.1829E2,8.593607E0,3.41E1,-1.1716E2,3.787E1,3.39E1,2.8E1,2.5E1,6.3856445E-2,2.7171299E-2,5.570505E-2,1.01527765E-1,8.439361E-3,3.750139E-2,-1.7666196E-2,-3.2185186E-2,6.694012E-2,1.3017266E-2,-2.5178576E-3,-2.1309633E-2,1.3112112E-2,-1.9515945E-2,-6.842224E-2,-3.5892583E-2,5.06643E-3,-1.4717849E-2,2.9860226E-2,-1.255469E-2,8.8991426E-2,4.856697E-2,2.6138205E-2,-4.446162E-2,3.4595157E-3,-1.696195E-2,-8.334689E-3,-3.250612E-2,1.916143E-2,4.3418564E-2,1.2381182E-2,-2.5325814E-2],"split_indices":[0,7,5,6,6,1,0,6,6,7,7,2,5,7,7,0,2,7,6,6,7,6,5,7,2,6,7,6,6,1,1,0,0,0,0,0,0,0,0,0,0,0,0,0,0,0,0,0,0,0,0,0,0,0,0,0,0,0,0,0,0,0,0],"split_type":[0,0,0,0,0,0,0,0,0,0,0,0,0,0,0,0,0,0,0,0,0,0,0,0,0,0,0,0,0,0,0,0,0,0,0,0,0,0,0,0,0,0,0,0,0,0,0,0,0,0,0,0,0,0,0,0,0,0,0,0,0,0,0],"sum_hessian":[1.3224E4,8.363E3,4.861E3,6.58E2,7.705E3,2.127E3,2.734E3,2.65E2,3.93E2,4.228E3,3.477E3,4.53E2,1.674E3,1.892E3,8.42E2,1.46E2,1.19E2,1.56E2,2.37E2,6.09E2,3.619E3,2.649E3,8.28E2,3.08E2,1.45E2,2.05E2,1.469E3,1.588E3,3.04E2,5.84E2,2.58E2,3.8E1,1.08E2,4.9E1,7E1,1.38E2,1.8E1,9.6E1,1.41E2,2.24E2,3.85E2,2.371E3,1.248E3,7.2E2,1.929E3,1.22E2,7.06E2,1.49E2,1.59E2,1.22E2,2.3E1,9.4E1,1.11E2,1.434E3,3.5E1,1.315E3,2.73E2,2E2,1.04E2,3.88E2,1.96E2,2.11E2,4.7E1],"tree_param":{"num_deleted":"0","num_feature":"8","num_nodes":"63","size_leaf_vector":"1"}},{"base_weights":[-1.027918E-3,-9.116947E-2,9.046022E-2,9.3577534E-2,-1.0671211E-1,2.8471512E-1,5.5966746E-2,5.400297E-1,-1.4188562E-1,-5.401845E-2,-1.6653109E-1,8.5888885E-2,3.9229044E-1,-1.09439345E-4,2.0959656E-1,-4.6761885E-1,6.031681E-1,6.0737E-2,-2.2922869E-1,2.94638E-1,-9.670468E-2,-1.05325565E-1,-3.3567846E-1,-3.294115E-1,1.4611183E-1,1.0550176E-1,5.2681035E-1,2.4443717E-1,-2.8308162E-2,2.6871037E-1,5.8970336E-2,3.1516742E-2,-9.599492E-2,4.3099925E-2,8.537037E-2,9.326658E-3,-1.9100703E-2,-1.5447155E-2,-2.7885338E-2,7.8694575E-2,8.865947E-3,-3.5695755E-3,-1.9492766E-2,9.146444E-3,-1.7215667E-2,-5.856225E-2,-2.9491186E-2,-6.559216E-2,-1.3790903E-2,1.836239E-2,-2.768669E-2,-6.0349483E-2,1.4131953E-2,7.816538E-2,3.2349665E-2,7.001514E-2,1.8895168E-2,5.575204E-4,-1.7830621E-2,4.3455195E-2,2.0289304E-2,2.3243515E-2,-7.7681355E-3],"categories":[],"categories_nodes":[],"categories_segments":[],"categories_sizes":[],"default_left":[0,0,0,0,0,0,0,0,0,0,0,0,0,0,0,0,0,0,0,0,0,0,0,0,0,0,0,0,0,0,0,0,0,0,0,0,0,0,0,0,0,0,0,0,0,0,0,0,0,0,0,0,0,0,0,0,0,0,0,0,0,0,0],"id":22,"left_children":[1,3,5,7,9,11,13,15,17,19,21,23,25,27,29,31,33,35,37,39,41,43,45,47,49,51,53,55,57,59,61,-1,-1,-1,-1,-1,-1,-1,-1,-1,-1,-1,-1,-1,-1,-1,-1,-1,-1,-1,-1,-1,-1,-1,-1,-1,-1,-1,-1,-1,-1,-1,-1],"loss_changes":[1.0791046E2,1.893576E1,4.349728E1,5.3899616E1,1.9155655E1,2.0905937E1,4.7520214E1,1.1543022E1,5.9603434E0,4.815956E1,2.9438934E1,8.676792E0,2.4441948E1,2.7880157E1,1.3117691E1,4.5418286E0,6.8355026E0,8.5310555E-1,8.287277E-1,3.572613E1,1.7263369E1,2.7529078E1,7.5304413E0,2.6607523E0,4.842615E0,5.2657986E0,2.2130432E1,1.04370575E1,1.8424833E1,1.1471085E1,9.902732E0,0E0,0E0,0E0,0E0,0E0,0E0,0E0,0E0,0E0,0E0,0E0,0E0,0E0,0E0,0E0,0E0,0E0,0E0,0E0,0E0,0E0,0E0,0E0,0E0,0E0,0E0,0E0,0E0,0E0,0E0,0E0,0E0],"parents":[2147483647,0,0,1,1,2,2,3,3,4,4,5,5,6,6,7,7,8,8,9,9,10,10,11,11,12,12,13,13,14,14,15,15,16,16,17,17,18,18,19,19,20,20,21,21,22,22,23,23,24,24,25,25,26,26,27,27,28,28,29,29,30,30],"right_children":[2,4,6,8,10,12,14,16,18,20,22,24,26,28,30,32,34,36,38,40,42,44,46,48,50,52,54,56,58,60,62,-1,-1,-1,-1,-1,-1,-1,-1,-1,-1,-1,-1,-1,-1,-1,-1,-1,-1,-1,-1,-1,-1,-1,-1,-1,-1,-1,-1,-1,-1,-1,-1],"split_conditions":[3.5488E0,-1.2239E2,2.3005319E0,3.799E1,3.445E1,1.0377358E0,5.8416E0,2E1,3.863E1,-1.1837E2,-1.2007E2,9.381188E-1,1.9E1,-1.2224E2,-1.1796E2,-1.2246E2,3.778E1,1.1859297E0,3.955E1,3.417E1,-1.1776E2,3.759E1,2.3598485E0,2.7E1,-1.1785E2,3.281E1,3.409E1,3.759E1,3.759E1,3.417E1,3.365E1,3.1516742E-2,-9.599492E-2,4.3099925E-2,8.537037E-2,9.326658E-3,-1.9100703E-2,-1.5447155E-2,-2.7885338E-2,7.8694575E-2,8.865947E-3,-3.5695755E-3,-1.9492766E-2,9.146444E-3,-1.7215667E-2,-5.856225E-2,-2.9491186E-2,-6.559216E-2,-1.3790903E-2,1.836239E-2,-2.768669E-2,-6.0349483E-2,1.4131953E-2,7.816538E-2,3.2349665E-2,7.001514E-2,1.8895168E-2,5.575204E-4,-1.7830621E-2,4.3455195E-2,2.0289304E-2,2.3243515E-2,-7.7681355E-3],"split_indices":[0,7,5,6,6,3,0,1,6,7,7,3,1,7,7,7,6,3,6,6,7,6,5,1,7,6,6,6,6,6,6,0,0,0,0,0,0,0,0,0,0,0,0,0,0,0,0,0,0,0,0,0,0,0,0,0,0,0,0,0,0,0,0],"split_type":[0,0,0,0,0,0,0,0,0,0,0,0,0,0,0,0,0,0,0,0,0,0,0,0,0,0,0,0,0,0,0,0,0,0,0,0,0,0,0,0,0,0,0,0,0,0,0,0,0,0,0,0,0,0,0,0,0,0,0,0,0,0,0],"sum_hessian":[1.3083E4,6.59E3,6.493E3,5.11E2,6.079E3,9.78E2,5.515E3,1.76E2,3.35E2,3.233E3,2.846E3,3.44E2,6.34E2,4.041E3,1.474E3,1E1,1.66E2,1.01E2,2.34E2,3.52E2,2.881E3,2.091E3,7.55E2,4.3E1,3.01E2,2.03E2,4.31E2,4.17E2,3.624E3,1.058E3,4.16E2,4E0,6E0,1E2,6.6E1,9E1,1.1E1,9.5E1,1.39E2,1.03E2,2.49E2,1.778E3,1.103E3,5.3E2,1.561E3,1.04E2,6.51E2,1.5E1,2.8E1,2.77E2,2.4E1,9E0,1.94E2,1.9E2,2.41E2,4.4E1,3.73E2,2.957E3,6.67E2,2.99E2,7.59E2,1.83E2,2.33E2],"tree_param":{"num_deleted":"0","num_feature":"8","num_nodes":"63","size_leaf_vector":"1"}},{"base_weights":[-1.7241455E-3,1.6384436E-2,-2.2663356E-1,6.7421444E-2,-6.855461E-2,-1.8443345E-1,-4.4916594E-1,1.7585003E-1,-1.5356782E-2,8.971189E-2,-9.366149E-2,-1.5413438E-1,-3.9159623E-1,-4.8354504E-1,-2.0513171E-1,4.4103137E-1,6.3577764E-2,4.5625515E-2,-5.110307E-1,7.50711E-1,7.120421E-2,3.4756288E-2,-1.3258742E-1,-1.7970335E-1,9.10108E-3,1.6116431E-1,-4.263547E-1,1.3172835E-1,-4.9371126E-1,3.5025224E-1,-3.1715417E-1,6.762883E-2,2.4642076E-2,2.7663684E-2,-2.878708E-3,2.774413E-2,-3.871711E-3,-5.7750065E-2,-2.1700336E-2,-2.9208155E-3,9.199229E-2,5.494988E-3,4.2134624E-2,1.14871E-2,-1.6190998E-2,-6.96178E-3,-2.729222E-2,-1.9630201E-2,2.426172E-3,4.4629883E-2,-2.9015045E-3,-4.6042677E-2,-6.0034622E-3,-2.9045543E-2,4.8804797E-2,-5.4653477E-2,-3.6056194E-2,9.776874E-2,-1.847886E-2,-4.2145766E-2,3.4484908E-2],"categories":[],"categories_nodes":[],"categories_segments":[],"categories_sizes":[],"default_left":[0,0,0,0,0,0,0,0,0,0,0,0,0,0,0,0,0,0,0,0,0,0,0,0,0,0,0,0,0,0,0,0,0,0,0,0,0,0,0,0,0,0,0,0,0,0,0,0,0,0,0,0,0,0,0,0,0,0,0,0,0],"id":23,"left_children":[1,3,5,7,9,11,13,15,17,19,21,23,25,27,29,31,33,35,37,39,41,43,45,47,49,-1,51,53,55,57,59,-1,-1,-1,-1,-1,-1,-1,-1,-1,-1,-1,-1,-1,-1,-1,-1,-1,-1,-1,-1,-1,-1,-1,-1,-1,-1,-1,-1,-1,-1],"loss_changes":[5.3727894E1,5.293106E1,9.148407E0,6.845903E1,1.8219307E1,5.136862E0,1.2095966E0,9.8280785E1,1.3078676E2,7.62922E0,1.9779785E1,3.0234394E0,7.9982376E0,9.157181E-1,1.4176087E0,4.4792755E1,4.568331E1,7.5344406E1,9.138535E0,2.2703857E0,3.4599376E0,1.4529746E1,2.68096E1,2.124113E0,1.6627134E0,0E0,1.2704105E0,5.930533E-1,7.4541473E-1,1.5234791E0,1.3882256E0,0E0,0E0,0E0,0E0,0E0,0E0,0E0,0E0,0E0,0E0,0E0,0E0,0E0,0E0,0E0,0E0,0E0,0E0,0E0,0E0,0E0,0E0,0E0,0E0,0E0,0E0,0E0,0E0,0E0,0E0],"parents":[2147483647,0,0,1,1,2,2,3,3,4,4,5,5,6,6,7,7,8,8,9,9,10,10,11,11,12,12,13,13,14,14,15,15,16,16,17,17,18,18,19,19,20,20,21,21,22,22,23,23,24,24,26,26,27,27,28,28,29,29,30,30],"right_children":[2,4,6,8,10,12,14,16,18,20,22,24,26,28,30,32,34,36,38,40,42,44,46,48,50,-1,52,54,56,58,60,-1,-1,-1,-1,-1,-1,-1,-1,-1,-1,-1,-1,-1,-1,-1,-1,-1,-1,-1,-1,-1,-1,-1,-1,-1,-1,-1,-1,-1,-1],"split_conditions":[-1.1715E2,3.0268817E0,-1.1639E2,3.453E1,3.388E1,3.385E1,7.780311E0,-1.1835E2,-1.1985E2,-1.1829E2,-1.2149E2,6.622324E0,8.181818E-1,1.6914716E0,7.870968E0,3.409E1,3.376E1,3.761E1,1.1555556E0,3.9109092E0,8.249196E0,3.791E1,3.453E1,3.121E3,1.8380188E0,1.6116431E-1,1.6883562E1,3.7578125E0,3.5882354E0,2.48E2,2.471E3,6.762883E-2,2.4642076E-2,2.7663684E-2,-2.878708E-3,2.774413E-2,-3.871711E-3,-5.7750065E-2,-2.1700336E-2,-2.9208155E-3,9.199229E-2,5.494988E-3,4.2134624E-2,1.14871E-2,-1.6190998E-2,-6.96178E-3,-2.729222E-2,-1.9630201E-2,2.426172E-3,4.4629883E-2,-2.9015045E-3,-4.6042677E-2,-6.0034622E-3,-2.9045543E-2,4.8804797E-2,-5.4653477E-2,-3.6056194E-2,9.776874E-2,-1.847886E-2,-4.2145766E-2,3.4484908E-2],"split_indices":[7,5,7,6,6,6,2,7,7,7,7,2,3,5,2,6,6,6,3,2,2,6,6,4,5,0,2,2,5,4,4,0,0,0,0,0,0,0,0,0,0,0,0,0,0,0,0,0,0,0,0,0,0,0,0,0,0,0,0,0,0],"split_type":[0,0,0,0,0,0,0,0,0,0,0,0,0,0,0,0,0,0,0,0,0,0,0,0,0,0,0,0,0,0,0,0,0,0,0,0,0,0,0,0,0,0,0,0,0,0,0,0,0,0,0,0,0,0,0,0,0,0,0,0,0],"sum_hessian":[1.319E4,1.2208E4,9.82E2,7.626E3,4.582E3,8.27E2,1.55E2,3.301E3,4.325E3,6.27E2,3.955E3,7.23E2,1.04E2,1.35E2,2E1,9.81E2,2.32E3,3.852E3,4.73E2,1.6E1,6.11E2,9.2E2,3.035E3,6.25E2,9.8E1,1E0,1.03E2,2E0,1.33E2,3E0,1.7E1,4.43E2,5.38E2,7.01E2,1.619E3,1.027E3,2.825E3,3.85E2,8.8E1,3E0,1.3E1,5.85E2,2.6E1,6.54E2,2.66E2,2.096E3,9.39E2,5.78E2,4.7E1,7E0,9.1E1,9.4E1,9E0,1E0,1E0,9.3E1,4E1,1E0,2E0,1.5E1,2E0],"tree_param":{"num_deleted":"0","num_feature":"8","num_nodes":"61","size_leaf_vector":"1"}},{"base_weights":[-1.4833886E-4,-3.6302276E-2,1.5032043E-1,-8.15241E-3,-1.6786219E-1,3.1473336E-1,1.0678969E-1,1.6132474E-1,-2.7138276E-2,-1.4679968E-1,-4.065747E-1,1.770896E-1,3.7913465E-1,5.1269613E-2,2.5968185E-1,-7.957143E-2,3.701335E-1,-8.685471E-2,4.311225E-2,-5.6946E-1,-1.3602251E-1,-4.2306694E-1,-9.569102E-2,-2.3669566E-1,2.580669E-1,4.265396E-1,1.6441964E-1,6.8422444E-3,2.2041343E-1,3.39585E-1,5.5124614E-2,-1.5357546E-2,3.1009162E-4,4.72734E-2,2.6555503E-2,-2.7024638E-4,-1.5138415E-2,1.9163935E-2,-2.1641261E-3,-6.7195706E-2,1.74598E-2,1.1563158E-2,-1.5693378E-2,1.2514196E-2,-4.3160934E-2,-1.9182201E-2,3.3667844E-2,2.85545E-2,-3.573935E-2,1.464911E-2,4.20111E-2,-5.837336E-3,4.3832377E-2,3.753342E-2,7.396075E-4,3.0097307E-3,-3.3897426E-2,1.1715089E-2,3.1052897E-2,4.4777516E-2,1.0848849E-2,-1.5103224E-2,1.3634783E-2],"categories":[],"categories_nodes":[],"categories_segments":[],"categories_sizes":[],"default_left":[0,0,0,0,0,0,0,0,0,0,0,0,0,0,0,0,0,0,0,0,0,0,0,0,0,0,0,0,0,0,0,0,0,0,0,0,0,0,0,0,0,0,0,0,0,0,0,0,0,0,0,0,0,0,0,0,0,0,0,0,0,0,0],"id":24,"left_children":[1,3,5,7,9,11,13,15,17,19,21,23,25,27,29,31,33,35,37,39,41,43,45,47,49,51,53,55,57,59,61,-1,-1,-1,-1,-1,-1,-1,-1,-1,-1,-1,-1,-1,-1,-1,-1,-1,-1,-1,-1,-1,-1,-1,-1,-1,-1,-1,-1,-1,-1,-1,-1],"loss_changes":[7.250485E1,3.9795303E1,1.8445805E1,2.8490414E1,9.4631195E0,4.7196503E0,1.7328867E1,4.4898148E1,3.3405216E1,7.8574944E0,7.439728E-1,5.891338E0,3.6654015E0,1.1270413E1,8.872833E0,2.5394826E0,5.003311E0,2.3371582E1,3.519513E1,3.3966637E0,8.96423E0,7.330513E-1,4.386593E-1,1.9300183E0,2.578166E0,1.7398796E0,2.249286E0,9.572121E0,2.8669586E0,9.727348E0,2.59928E0,0E0,0E0,0E0,0E0,0E0,0E0,0E0,0E0,0E0,0E0,0E0,0E0,0E0,0E0,0E0,0E0,0E0,0E0,0E0,0E0,0E0,0E0,0E0,0E0,0E0,0E0,0E0,0E0,0E0,0E0,0E0,0E0],"parents":[2147483647,0,0,1,1,2,2,3,3,4,4,5,5,6,6,7,7,8,8,9,9,10,10,11,11,12,12,13,13,14,14,15,15,16,16,17,17,18,18,19,19,20,20,21,21,22,22,23,23,24,24,25,25,26,26,27,27,28,28,29,29,30,30],"right_children":[2,4,6,8,10,12,14,16,18,20,22,24,26,28,30,32,34,36,38,40,42,44,46,48,50,52,54,56,58,60,62,-1,-1,-1,-1,-1,-1,-1,-1,-1,-1,-1,-1,-1,-1,-1,-1,-1,-1,-1,-1,-1,-1,-1,-1,-1,-1,-1,-1,-1,-1,-1,-1],"split_conditions":[5.1442E0,-1.1776E2,-1.2202E2,-1.2239E2,-1.1639E2,7.66E2,1.060606E0,-1.226E2,-1.1888E2,1.5651302E0,4.017E3,5.388235E0,3.0130434E0,7.6685E0,3.12E0,-1.2287E2,2.5491803E0,-1.2157E2,-1.183E2,1.1806854E0,1.9284818E0,1.6914716E0,7.0975E0,-1.2243E2,7.3463E0,5.1733E0,-1.2226E2,-1.1716E2,1.007326E0,-1.1785E2,-1.1953E2,-1.5357546E-2,3.1009162E-4,4.72734E-2,2.6555503E-2,-2.7024638E-4,-1.5138415E-2,1.9163935E-2,-2.1641261E-3,-6.7195706E-2,1.74598E-2,1.1563158E-2,-1.5693378E-2,1.2514196E-2,-4.3160934E-2,-1.9182201E-2,3.3667844E-2,2.85545E-2,-3.573935E-2,1.464911E-2,4.20111E-2,-5.837336E-3,4.3832377E-2,3.753342E-2,7.396075E-4,3.0097307E-3,-3.3897426E-2,1.1715089E-2,3.1052897E-2,4.4777516E-2,1.0848849E-2,-1.5103224E-2,1.3634783E-2],"split_indices":[0,7,7,7,7,4,3,7,7,5,4,2,5,0,5,7,5,7,7,3,5,5,2,7,0,0,7,7,3,7,7,0,0,0,0,0,0,0,0,0,0,0,0,0,0,0,0,0,0,0,0,0,0,0,0,0,0,0,0,0,0,0,0],"split_type":[0,0,0,0,0,0,0,0,0,0,0,0,0,0,0,0,0,0,0,0,0,0,0,0,0,0,0,0,0,0,0,0,0,0,0,0,0,0,0,0,0,0,0,0,0,0,0,0,0,0,0,0,0,0,0,0,0,0,0,0,0,0,0],"sum_hessian":[1.3326E4,1.0745E4,2.581E3,8.852E3,1.893E3,5.39E2,2.042E3,8.91E2,7.961E3,1.741E3,1.52E2,1.73E2,3.66E2,1.499E3,5.43E2,4.14E2,4.77E2,4.303E3,3.658E3,4.2E1,1.699E3,1.44E2,8E0,2.8E1,1.45E2,2.99E2,6.7E1,1.188E3,3.11E2,3.9E2,1.53E2,2.18E2,1.96E2,2.39E2,2.38E2,1.868E3,2.435E3,1.11E3,2.548E3,3.7E1,5E0,1.3E2,1.569E3,2E0,1.42E2,7E0,1E0,5E0,2.3E1,8.7E1,5.8E1,7E0,2.92E2,2.8E1,3.9E1,1.114E3,7.4E1,1.46E2,1.65E2,2.65E2,1.25E2,4.3E1,1.1E2],"tree_param":{"num_deleted":"0","num_feature":"8","num_nodes":"63","size_leaf_vector":"1"}},{"base_weights":[-1.4706128E-4,-4.2419583E-2,1.1283483E-1,1.4695638E-1,-5.938055E-2,5.0848983E-2,2.0664614E-1,-6.824797E-2,3.400801E-1,-3.6798812E-2,-1.5240379E-1,2.3266375E-2,3.1418306E-1,2.5914285E-1,8.394772E-3,-1.443413E-1,2.004518E-2,-1.5622948E-1,4.114107E-1,-9.664896E-2,3.516667E-2,-1.3425647E-1,-3.4007856E-1,3.404391E-1,1.2782678E-3,-6.1506696E-2,3.263681E-1,4.1572712E-2,3.000939E-1,-3.1384673E-2,3.9594454E-1,-3.5923352E-3,-2.187476E-2,-1.1078353E-2,1.2749749E-2,-9.4182804E-2,-3.5901417E-3,1.0407183E-1,3.5587102E-2,-1.389115E-3,-1.5122342E-2,1.0358057E-2,-9.002919E-3,-4.957709E-2,-1.2472359E-2,-8.627172E-3,-3.613693E-2,2.6299292E-2,6.791961E-2,3.0953398E-3,-1.767774E-2,4.367241E-2,2.5829447E-2,-4.0758703E-2,7.897789E-3,4.727615E-2,2.5015393E-2,-9.001144E-3,1.4668149E-2,1.3308562E-2,6.1488327E-2],"categories":[],"categories_nodes":[],"categories_segments":[],"categories_sizes":[],"default_left":[0,0,0,0,0,0,0,0,0,0,0,0,0,0,0,0,0,0,0,0,0,0,0,0,0,0,0,0,0,0,0,0,0,0,0,0,0,0,0,0,0,0,0,0,0,0,0,0,0,0,0,0,0,0,0,0,0,0,0,0,0],"id":25,"left_children":[1,3,5,7,9,11,13,15,17,19,21,23,25,27,29,31,33,35,37,39,41,43,45,47,49,-1,51,53,55,57,59,-1,-1,-1,-1,-1,-1,-1,-1,-1,-1,-1,-1,-1,-1,-1,-1,-1,-1,-1,-1,-1,-1,-1,-1,-1,-1,-1,-1,-1,-1],"loss_changes":[6.2971962E1,3.0827862E1,2.086525E1,3.2814896E1,1.8494602E1,1.5703511E1,1.4859791E1,2.51562E0,1.4791523E1,3.0532442E1,5.812313E0,1.3661686E1,2.521944E0,1.00466E1,4.637381E0,1.6136045E0,2.4601903E0,4.976253E0,1.2352005E1,1.7476608E1,2.7580496E1,5.348816E0,7.847862E-1,3.1532764E0,9.690722E0,0E0,1.4122028E0,3.0563517E0,8.073601E0,2.8631709E0,1.5295668E0,0E0,0E0,0E0,0E0,0E0,0E0,0E0,0E0,0E0,0E0,0E0,0E0,0E0,0E0,0E0,0E0,0E0,0E0,0E0,0E0,0E0,0E0,0E0,0E0,0E0,0E0,0E0,0E0,0E0,0E0],"parents":[2147483647,0,0,1,1,2,2,3,3,4,4,5,5,6,6,7,7,8,8,9,9,10,10,11,11,12,12,13,13,14,14,15,15,16,16,17,17,18,18,19,19,20,20,21,21,22,22,23,23,24,24,26,26,27,27,28,28,29,29,30,30],"right_children":[2,4,6,8,10,12,14,16,18,20,22,24,26,28,30,32,34,36,38,40,42,44,46,48,50,-1,52,54,56,58,60,-1,-1,-1,-1,-1,-1,-1,-1,-1,-1,-1,-1,-1,-1,-1,-1,-1,-1,-1,-1,-1,-1,-1,-1,-1,-1,-1,-1,-1,-1],"split_conditions":[4.6167E0,-1.2239E2,1.0393939E0,-1.226E2,-1.1776E2,8.4471E0,3.145422E0,-1.2287E2,2.2E1,-1.1888E2,-1.1639E2,-1.2232E2,4.6782274E0,1.2E1,8.92562E0,2.3E1,2.1E1,3.5537758E0,1.6914716E0,-1.2162E2,3.435018E0,1.5651302E0,2.0235295E0,6.7746835E0,-1.1767E2,-6.1506696E-2,-1.2184E2,4.961039E0,2.2931392E0,2.7E1,3.3522012E0,-3.5923352E-3,-2.187476E-2,-1.1078353E-2,1.2749749E-2,-9.4182804E-2,-3.5901417E-3,1.0407183E-1,3.5587102E-2,-1.389115E-3,-1.5122342E-2,1.0358057E-2,-9.002919E-3,-4.957709E-2,-1.2472359E-2,-8.627172E-3,-3.613693E-2,2.6299292E-2,6.791961E-2,3.0953398E-3,-1.767774E-2,4.367241E-2,2.5829447E-2,-4.0758703E-2,7.897789E-3,4.727615E-2,2.5015393E-2,-9.001144E-3,1.4668149E-2,1.3308562E-2,6.1488327E-2],"split_indices":[0,7,3,7,7,0,5,7,1,7,7,7,2,1,2,1,1,2,5,7,5,5,5,2,7,0,7,2,5,1,5,0,0,0,0,0,0,0,0,0,0,0,0,0,0,0,0,0,0,0,0,0,0,0,0,0,0,0,0,0,0],"split_type":[0,0,0,0,0,0,0,0,0,0,0,0,0,0,0,0,0,0,0,0,0,0,0,0,0,0,0,0,0,0,0,0,0,0,0,0,0,0,0,0,0,0,0,0,0,0,0,0,0,0,0,0,0,0,0,0,0,0,0,0,0],"sum_hessian":[1.3183E4,9.594E3,3.589E3,7.88E2,8.806E3,2.162E3,1.427E3,3.73E2,4.15E2,7.087E3,1.719E3,1.958E3,2.04E2,1.128E3,2.99E2,2E2,1.73E2,5.2E1,3.63E2,3.869E3,3.218E3,1.569E3,1.5E2,1.26E2,1.832E3,2E0,2.02E2,1.79E2,9.49E2,2.72E2,2.7E1,8.2E1,1.18E2,7.8E1,9.5E1,6E0,4.6E1,2.8E1,3.35E2,1.538E3,2.331E3,2.081E3,1.137E3,3.9E1,1.53E3,1.2E1,1.38E2,1.04E2,2.2E1,1.571E3,2.61E2,7.5E1,1.27E2,1.3E1,1.66E2,2.11E2,7.38E2,2.05E2,6.7E1,1.3E1,1.4E1],"tree_param":{"num_deleted":"0","num_feature":"8","num_nodes":"61","size_leaf_vector":"1"}},{"base_weights":[7.677508E-4,-5.4794114E-2,6.967685E-2,9.243779E-4,-9.045969E-2,2.2162065E-1,3.6094088E-2,-2.1759062E-1,2.1394007E-2,2.3613374E-1,-9.5834695E-2,-7.268975E-1,2.3963097E-1,-7.2717355E-3,1.3524641E-1,5.401652E-2,-2.829965E-1,6.0254842E-2,-6.442409E-2,5.0438184E-1,-6.1853763E-2,-1.15886346E-1,-4.0127933E-2,-1.0718951E0,-3.471817E-1,2.0915575E-2,3.033744E-1,-7.821986E-2,3.737722E-2,1.5382175E-1,-1.4589055E-1,-6.4251493E-3,5.098601E-2,-3.667375E-2,-1.937481E-2,2.8831484E-3,3.2879557E-2,1.1785028E-1,-6.896481E-3,6.396733E-3,9.901776E-2,2.8828684E-2,-3.71882E-2,-1.6370403E-2,-8.553299E-3,7.1518295E-2,-4.4033793E-3,-1.3347533E-1,-1.3641675E-3,2.8073821E-2,-5.1791262E-2,-3.5592858E-3,4.4196367E-2,4.9464162E-2,1.8408738E-2,-3.0689538E-2,-6.622846E-3,2.6694834E-3,3.107493E-2,1.1333969E-2,2.5822734E-2,-3.6782682E-2,-1.3274623E-3],"categories":[],"categories_nodes":[],"categories_segments":[],"categories_sizes":[],"default_left":[0,0,0,0,0,0,0,0,0,0,0,0,0,0,0,0,0,0,0,0,0,0,0,0,0,0,0,0,0,0,0,0,0,0,0,0,0,0,0,0,0,0,0,0,0,0,0,0,0,0,0,0,0,0,0,0,0,0,0,0,0,0,0],"id":26,"left_children":[1,3,5,7,9,11,13,15,17,19,21,23,25,27,29,31,33,35,37,39,41,43,45,47,49,51,53,55,57,59,61,-1,-1,-1,-1,-1,-1,-1,-1,-1,-1,-1,-1,-1,-1,-1,-1,-1,-1,-1,-1,-1,-1,-1,-1,-1,-1,-1,-1,-1,-1,-1,-1],"loss_changes":[5.0236603E1,1.4435339E1,2.9878477E1,1.2689858E1,7.797474E0,1.8282288E1,2.0631529E1,4.3321095E0,8.654776E0,5.7864885E0,4.8632927E0,2.247879E0,1.4506931E1,1.0580072E1,7.6468735E0,2.6205215E0,1.3937998E0,1.5061596E1,4.647091E0,8.066818E0,3.9065797E0,4.636368E0,3.4389005E0,2.7634964E0,1.3246564E0,5.6308236E0,1.8298393E1,3.517035E0,5.9782495E0,5.761112E0,2.6734555E0,0E0,0E0,0E0,0E0,0E0,0E0,0E0,0E0,0E0,0E0,0E0,0E0,0E0,0E0,0E0,0E0,0E0,0E0,0E0,0E0,0E0,0E0,0E0,0E0,0E0,0E0,0E0,0E0,0E0,0E0,0E0,0E0],"parents":[2147483647,0,0,1,1,2,2,3,3,4,4,5,5,6,6,7,7,8,8,9,9,10,10,11,11,12,12,13,13,14,14,15,15,16,16,17,17,18,18,19,19,20,20,21,21,22,22,23,23,24,24,25,25,26,26,27,27,28,28,29,29,30,30],"right_children":[2,4,6,8,10,12,14,16,18,20,22,24,26,28,30,32,34,36,38,40,42,44,46,48,50,52,54,56,58,60,62,-1,-1,-1,-1,-1,-1,-1,-1,-1,-1,-1,-1,-1,-1,-1,-1,-1,-1,-1,-1,-1,-1,-1,-1,-1,-1,-1,-1,-1,-1,-1,-1],"split_conditions":[3.7411E0,2.612121E0,2.380841E0,1.6112E0,1.68E2,1.01E2,5.7833E0,1.7266186E0,3.782E1,2.25E0,1.862E3,3.724E1,1.7E1,1.0125E0,3.796E1,1.1691543E0,2.2508473E0,5E1,3.7E1,1.7456E0,3.428E1,2.3333E0,8.836E-1,2.1768422E0,8.5714287E-1,1.3356482E0,3.409E1,1.1E1,4.9E1,3.3E1,8.94E2,-6.4251493E-3,5.098601E-2,-3.667375E-2,-1.937481E-2,2.8831484E-3,3.2879557E-2,1.1785028E-1,-6.896481E-3,6.396733E-3,9.901776E-2,2.8828684E-2,-3.71882E-2,-1.6370403E-2,-8.553299E-3,7.1518295E-2,-4.4033793E-3,-1.3347533E-1,-1.3641675E-3,2.8073821E-2,-5.1791262E-2,-3.5592858E-3,4.4196367E-2,4.9464162E-2,1.8408738E-2,-3.0689538E-2,-6.622846E-3,2.6694834E-3,3.107493E-2,1.1333969E-2,2.5822734E-2,-3.6782682E-2,-1.3274623E-3],"split_indices":[0,5,5,0,4,4,0,5,6,0,4,6,1,3,6,3,5,1,4,0,6,0,0,5,3,3,6,1,1,1,4,0,0,0,0,0,0,0,0,0,0,0,0,0,0,0,0,0,0,0,0,0,0,0,0,0,0,